nep4_zbl 1 Zr 
zbl 1 2
cutoff 6 5 122 66
n_max 8 8
basis_size 8 8
l_max 4 2 1
ANN 80 0
  7.8624648e-01
 -2.7159677e+00
  1.0753193e+00
  1.6946303e+00
 -1.1158688e-01
  1.5795556e+00
 -4.6768999e-01
 -1.3873700e+00
  2.8232753e+00
 -1.2837924e+00
 -1.8920942e-01
  1.2779195e-03
 -6.4028993e-02
 -2.2241015e-04
 -3.8951181e-05
  2.2778315e-03
 -5.8996797e-01
  1.6296563e-04
 -3.4315344e-05
  6.3732147e-01
 -2.9874593e-02
 -1.6462603e+00
 -1.4830388e+00
 -1.0264481e-04
 -1.5028684e+00
 -7.5162500e-02
 -1.1934050e+00
  1.6614868e-01
  7.3582375e-01
  1.1290409e-01
 -4.6612188e-04
  3.3418386e-04
  1.3884936e-03
  1.0786883e-02
  1.3402040e-02
  6.7845108e-03
 -6.0827832e-04
 -1.9449941e-03
  1.4623158e-04
 -8.9833617e-01
 -5.9548620e-04
 -1.5690577e-05
 -2.8869891e-04
 -9.6155511e-04
 -3.3018764e-02
 -2.2924092e-04
 -4.7562859e-04
 -3.2903216e-04
 -1.5043237e-04
 -4.7502175e-04
 -1.0156323e-03
 -1.4020067e-03
  1.1725633e-03
 -4.5661390e-04
  5.5920240e-04
 -1.3486622e-03
 -4.8987003e-04
 -5.9862443e-05
 -1.1597638e-04
  1.3896920e-03
  2.0953859e-05
 -2.7312167e-04
 -6.0649845e-04
  7.0709197e-05
  8.6293203e-01
 -3.2924209e-04
 -4.1205547e-04
  5.0027436e-05
  9.3382521e-05
  2.4326249e-05
 -9.3633585e-05
 -3.6622677e-04
  2.3849111e-04
  1.7039852e-04
  1.8403659e-04
  2.1850419e-06
  4.3643155e-04
  1.9193134e-04
  5.3404183e-06
 -1.5231071e-03
 -2.3376397e-04
 -1.4525514e-05
  5.4171582e-05
  5.4334995e-04
 -3.7134296e-04
 -8.8867266e-05
 -1.0894217e-03
  2.0921275e-04
  1.6046913e-03
 -1.0494336e-04
 -1.8122768e-04
 -1.0145991e-03
 -1.9806750e-04
 -2.9981541e-04
 -6.6321089e-05
 -8.1386017e-05
  2.8131300e-04
  6.9050133e-05
  4.5162935e-05
  3.6409835e-04
  4.9719837e-04
 -2.4488353e-04
 -1.3390626e-03
 -2.5951857e-05
  8.0636831e-04
  4.1793872e-05
  4.5844752e-04
 -4.2347697e-04
  2.9152591e-04
 -1.3076307e-06
  3.2370782e-04
  1.8188990e-05
  7.0244120e-04
 -1.1222603e-03
  6.9892529e-05
 -2.0998743e-04
  5.6630311e-06
  1.5557783e-04
  1.4179613e-04
 -2.8517554e-04
  3.7558938e-04
  2.5596292e-04
  5.4081110e-04
  1.6597406e-06
  3.2558407e-06
  2.4654766e-04
 -3.8400796e-01
 -5.8859558e-04
 -1.6238614e-03
 -1.1115108e-03
 -1.2211463e-03
  2.7989611e-02
  4.6283603e-03
 -1.4530432e-04
 -9.5279314e-02
  2.9695110e-04
  1.1084207e-04
 -8.4472835e-05
 -7.7103969e-04
 -6.1950152e-04
  2.0412776e-04
  5.8571448e-05
 -8.6188804e-05
  5.2313920e-04
 -1.2468045e-03
  2.2522065e-04
 -1.1479671e-04
  1.9367080e-04
 -1.8394704e-04
  3.9966200e-02
  7.2002695e-06
  5.3613676e-05
 -7.0284295e-04
 -6.4285455e-04
  3.2109434e-05
  1.0365044e-03
  1.3982023e-03
 -1.6075409e-03
  6.0325279e-04
  1.0620330e-04
 -2.5443060e-05
  1.5093021e-03
  2.0639214e-04
 -1.0214649e-03
  3.2813958e-04
  1.3607558e-03
  4.8931677e-05
 -2.9248495e-03
  1.8658416e-02
 -5.5955356e-04
 -3.0217171e-04
  2.3214461e-04
  7.3974614e-04
  3.7087801e-05
 -4.9604796e-04
  6.1533635e-04
 -1.0877111e-04
  2.9887643e-04
 -5.2642002e-04
  7.7850290e-04
 -9.3072827e-05
 -9.1345522e-05
 -1.4985426e-04
  9.7591646e-07
  1.0885199e-03
 -9.0540579e-04
 -1.8634023e-04
  4.5652123e-04
  1.0884157e-04
 -1.0146356e+00
  1.0833298e+00
 -1.1272514e+00
 -2.2752912e+00
  1.7722871e+00
 -1.0698027e-04
  1.4539151e+00
  3.1369191e-01
  2.7547772e+00
  1.6249515e+00
 -1.8074532e-01
 -2.7841681e-05
 -2.3255931e-01
  7.0248210e-01
 -2.8953192e-04
  1.6664790e-02
 -5.9033357e-02
  2.0638831e+00
 -2.2873688e-01
  3.4357473e-01
 -1.5920639e-05
  1.9256170e+00
  1.6109549e+00
 -9.9644977e-01
 -1.6881040e+00
 -6.0844399e-05
 -1.5036552e+00
  5.7538790e-01
 -6.4456201e-01
 -2.1875220e-04
  8.2107231e-02
 -7.6186325e-04
  1.9810396e-01
  3.5419813e-01
 -3.1626585e-01
  1.6466243e+00
 -4.4465464e-04
  1.2736412e-03
 -5.2197574e-04
  4.9577379e-03
  5.0012958e-01
 -5.0711696e-04
  1.5079502e+00
 -2.8733301e+00
  7.0870435e-01
 -6.5020239e-04
  6.0682633e-04
  3.1288393e-04
 -1.0734172e+00
  8.8341814e-04
  3.7259974e-03
  1.3877914e-03
  6.6401658e-04
 -6.8992859e-01
 -1.1065532e-04
 -1.6110577e-04
  3.2036655e-04
  1.1452367e-04
 -1.0964031e-04
  1.6642946e-03
  1.5812251e-05
  2.4242101e-04
  1.3460239e-04
  8.1267895e-04
 -6.5569766e-05
  5.7807021e-05
  5.3799344e-04
 -3.2436641e-04
 -1.9146187e-03
  8.0149031e-05
 -7.2158227e-04
 -7.8535196e-04
 -8.4101877e-05
 -2.4498655e-05
  1.5039727e-03
  1.2096624e-04
  1.7656114e-04
  3.8181012e-04
  1.9816383e-04
  4.6631510e-05
 -1.0710146e-04
 -3.9320238e-04
  7.5891346e-04
  7.3156151e-04
  5.1308691e-04
 -1.1764760e-03
  7.1006268e-04
  8.9903697e-05
  4.2998134e-05
  4.9244071e-04
  4.6620687e-04
  3.7822556e-05
  4.7030579e-04
 -3.8089778e-04
 -2.0647435e-04
  1.0165598e-04
 -1.5411509e-04
 -2.5946106e-04
 -3.0175952e-04
  2.7706730e-04
  5.1768526e-04
 -8.2394003e-04
 -1.2010061e-04
  6.3623920e-05
 -1.4538402e-04
  4.9037713e-04
 -3.1317558e-04
  2.8666678e-05
 -2.0617845e-04
 -9.8127661e-05
 -3.1469099e-04
  5.5233359e-05
 -7.3510624e-04
  3.7265089e-04
  8.6832349e-04
  3.8907598e-05
  1.3523028e-04
  3.3334934e-05
  9.4225450e-04
  1.1845347e-04
 -3.5162675e-04
 -1.1575424e-04
 -6.3497493e-05
  1.4379074e-05
 -3.9599396e-04
 -2.5332384e-04
 -4.1823551e-01
  3.9863479e-01
 -4.3079103e-04
 -2.2478231e-04
 -2.2466150e-03
  2.5639427e-04
  1.1967622e-04
 -3.0777150e-01
 -9.4605156e-04
 -6.3881904e-02
  1.0261310e-03
  8.6433967e-05
  7.8973171e-05
 -6.8591648e-01
 -3.2797313e-04
 -6.6755199e-01
 -3.1185582e-02
 -1.6476291e-04
  1.2117135e-04
  5.0051496e-03
 -1.4143777e-03
 -4.4275588e-01
  9.6319056e-01
  1.6950507e-01
  3.0101848e-01
  3.6605983e-04
  1.6547741e-03
 -4.3754978e-04
  2.4042506e-04
  1.8749957e-03
 -1.7421470e-04
 -5.1145186e-04
  4.7116575e-04
  7.9665464e-05
  9.9595287e-04
  2.9755533e-03
  3.3187527e-02
 -1.9617190e-04
  1.7779153e-03
  2.7251785e-04
 -1.6201622e-04
  1.4069475e-03
  1.7913011e-01
  3.5595112e-02
 -6.8083644e-01
  1.7836771e-03
  8.9769834e-04
 -2.0313158e-04
  3.8587893e-04
  1.8720953e-04
  3.9213603e-05
  2.1506695e-04
  1.2280766e-04
 -4.5030254e-05
 -1.4522948e-04
 -7.6846953e-04
  6.5875344e-04
  3.3047798e-04
  5.6895567e-04
  7.0655649e-04
 -1.3141448e-04
 -4.0213892e-04
  2.1410328e-03
 -2.2348464e+00
  5.9502630e+00
  1.5722693e+00
  1.2065809e+00
  4.3509955e+00
 -7.8757626e-01
 -1.9209474e+00
  5.7080059e+00
  1.0693274e+00
 -1.1462392e+00
  1.2502844e+00
  9.5998079e-01
  6.4665693e-01
 -1.4990253e+00
 -4.9804258e-01
 -4.6967587e-01
 -6.2360680e-01
 -6.8650520e-01
 -9.9938357e-01
 -3.0898334e-02
 -1.3898809e-02
  2.9485773e-03
 -1.5027317e+00
  6.9842148e-01
  7.5106901e-01
 -1.7008386e+00
  1.1029524e+00
 -1.0724652e+00
 -2.7215589e-02
  1.2982070e+00
  1.1155045e-03
  2.2107387e+00
 -1.6262599e+00
 -2.2853713e-01
 -1.2807271e+00
  7.0749909e-01
 -2.3291612e-01
 -6.5336570e-02
 -1.1108663e-02
  3.9802763e+00
  3.6580873e+00
  2.5836396e-01
  8.8908869e-01
  4.5015290e-01
  1.6338365e-02
  1.4761401e-06
  4.9386785e-04
  1.5853741e-04
  4.5518923e-01
 -4.0942979e-01
 -7.0711889e-04
 -5.0453311e-01
  2.3346476e-04
 -3.4380090e-04
 -5.9401937e-04
 -3.7175615e-04
 -7.6773249e-05
  1.7773091e-04
  4.6231507e-04
 -2.4434036e-04
 -1.1645175e-03
  1.0911915e-03
  1.0867632e-03
  8.9032203e-01
  2.0658855e+00
 -1.9117204e+00
 -7.3004949e-01
  4.1523585e+00
  1.3226187e+00
 -1.5076317e-01
  1.9082404e+00
 -1.3660352e+00
  1.0220902e-01
 -6.6709477e-01
 -1.5806853e+00
  1.1018320e+00
 -3.1025121e+00
 -4.5400017e-01
  1.6807246e+00
  1.4796227e+00
 -2.0670917e+00
  2.2308159e+00
  9.1621584e-01
  7.7858245e-01
  1.2586553e+00
 -1.3810370e+00
 -1.1572761e-01
 -6.8946505e-01
 -9.8400789e-01
 -2.2107999e+00
 -1.0129732e+00
 -7.7299535e-01
 -6.9057241e-05
 -1.6034296e-01
 -1.6235049e+00
 -7.0786333e-01
 -1.5050747e+00
 -4.9262431e-01
 -2.5832173e-01
 -8.5794663e-01
  4.9031258e-02
 -1.7023580e+00
 -4.2472744e-01
 -7.5843984e-01
 -3.8969842e-01
 -1.7583861e+00
  1.7957350e+00
 -5.8370703e-01
  7.1555661e-04
  3.2890859e-01
  1.0284928e-03
 -2.4757915e+00
 -9.9468701e-02
 -9.4932115e-01
  3.8950943e-04
 -2.1407208e-01
  9.3931652e-04
  4.1727864e-05
  4.1773682e-04
 -1.1797819e-04
  1.7927802e-01
 -4.2497327e-06
 -7.4760348e-04
 -2.3977445e-02
  2.4248706e-04
  5.3071702e-01
 -3.1013697e-01
  2.4562252e+00
  2.5667417e+00
  4.1629829e+00
  7.0772570e-01
 -1.5767612e+00
  1.6352379e+00
  1.2237424e-01
 -1.9898984e+00
 -1.7284722e+00
  2.2525320e-02
  3.8656357e-01
  8.0137664e-01
  2.9828501e-01
  1.4072281e-03
  3.8752084e+00
  1.0614309e+00
 -5.1824963e-01
  4.3339014e-01
  1.9287392e+00
  4.0431297e-01
  2.0331774e+00
 -3.2081911e-03
 -2.0495916e-04
  2.1851637e+00
 -8.6944491e-01
 -2.5156453e-01
  1.0196395e+00
  1.7463995e+00
  1.0582983e-01
  2.0275414e+00
  2.1568172e-01
 -4.6497589e-01
  2.1372941e-01
 -5.8971435e-01
  1.7742078e+00
  1.1846189e-03
 -3.4780454e-04
  1.1992508e+00
  1.1087229e+00
  4.9603859e-01
 -1.6100249e-01
  1.5147612e+00
 -1.5082911e-01
  1.3215417e+00
 -2.0337347e-03
 -7.8747412e-03
  2.0555886e-02
 -3.7596011e-04
 -2.2542181e-04
 -1.6399955e-03
 -4.3059134e-01
 -2.0209420e-01
  1.5666891e-03
  1.2094252e-04
 -1.5976488e-04
 -1.0062300e-04
  1.5323929e-03
 -5.1589672e-05
  8.3354785e-04
 -3.1165793e-04
  2.4580624e-02
  2.5288458e-04
 -2.4508746e+00
  3.5872051e-01
 -1.1693913e+00
  1.3612260e+00
 -2.9099414e+00
 -1.2149061e+00
 -2.3230958e+00
  4.4833630e-01
  1.7507158e-01
 -8.2895018e-02
  7.2712178e-04
  8.7944009e-06
  1.1950610e-02
  2.6285968e-04
  1.4544131e-03
  2.0142217e-01
  6.3267958e-05
  3.6760883e-03
  1.6303399e-01
 -4.1351169e-01
 -9.5458066e-01
  1.6219963e-01
  6.9653791e-01
  1.2699888e+00
 -2.4993259e-01
 -5.3913784e-01
  8.3278693e-02
  4.3866859e-04
  1.1939967e+00
  2.9641795e-01
  1.2057559e-05
  3.9127093e-02
  1.1267215e-03
  7.6832256e-04
  4.0027514e-04
  7.6789630e-04
 -7.2236425e-01
 -1.1348621e+00
  2.6434228e+00
 -9.6823072e-01
 -8.7519330e-01
  4.6308187e-01
 -1.1344121e-01
  2.7374190e-05
  1.5862972e+00
  1.0264011e-01
 -7.0227993e-01
  2.6980953e-04
 -2.8403378e-01
 -9.7437745e-01
  1.6596063e+00
  1.4459780e-05
  2.7866533e-02
  9.0372276e-01
 -2.6062058e-04
 -1.4811610e-04
  4.1037274e-04
  9.1658445e-04
  7.9906476e-04
  1.4482508e-04
  1.4088789e-03
 -2.2666669e-03
 -2.8518523e-04
  5.2356714e-01
  1.8110314e-03
 -1.5691546e-04
 -6.1716797e-04
  1.9656512e-04
  1.1158775e-03
  2.1165285e-04
  3.0616703e-03
  8.9183159e-04
 -1.6865159e-05
 -1.7481432e-03
 -1.2369706e-04
 -1.8255679e-04
 -1.5414989e-04
 -4.6959227e-05
 -2.4399429e-04
 -9.1556270e-05
 -5.4324168e-04
  3.1950706e-04
  4.9140531e-04
  3.0058029e-04
  2.9660659e-04
 -3.3112132e-04
 -1.6219959e-03
  2.1366961e-04
 -1.5095703e-04
 -3.0218397e-04
  8.7591959e-04
  7.4404862e-04
 -8.4210726e-05
 -2.3743724e-04
 -3.9524632e-04
 -9.7468954e-05
  1.4875080e-04
  3.4197219e-04
  1.5921113e-03
  3.1630563e-05
 -2.8277340e-04
 -2.7208612e-04
 -2.8755856e-04
  5.5051321e-04
 -7.4439985e-04
 -1.1277815e-03
 -9.9629001e-04
  4.2752194e-04
  1.0272674e-04
 -1.1059858e-03
  3.1973029e-04
 -3.7511153e-04
  2.4025975e-04
  6.9598382e-04
  5.3085521e-04
  4.4385440e-04
  4.0341113e-04
  2.2553700e-06
 -1.5549265e-05
 -5.9151743e-04
 -6.9446556e-05
  7.4353156e-04
 -2.1999097e-06
  3.1472521e-04
  2.4798894e-04
 -2.4044601e-04
  1.0335110e+00
  2.0660036e+00
  1.9696375e+00
 -1.1391926e+00
 -9.3045866e-01
  4.0449424e+00
  9.6202052e-01
 -2.5681274e+00
  9.1986947e-02
 -9.1116631e-01
  3.0075857e-01
  4.4492315e-04
 -9.7081935e-01
  3.4952939e+00
  1.1508828e-01
  2.8116787e-03
  1.0322566e-01
  7.1021533e-01
  1.1567683e-01
 -2.8011268e-01
  1.8304551e+00
 -1.8600340e+00
  1.8819488e+00
 -2.7488279e-03
 -5.8734739e-01
 -7.8745008e-01
 -1.2667519e-01
 -3.3901060e-01
 -1.2924151e+00
  1.5539245e-01
 -3.8990498e-02
  1.6011202e+00
  4.5169517e-01
  2.5064492e+00
 -6.3776439e-01
  3.4940541e-01
 -1.3517916e-01
  3.2454786e-01
 -4.8933245e-02
  8.4359449e-01
  1.5395625e+00
 -2.8306550e-01
 -5.5672783e-01
 -2.9512617e-01
 -5.6014842e-01
 -1.5271668e-04
 -5.6253965e-03
 -3.1231606e-04
  6.7417747e-01
 -1.0924125e-05
  2.6638016e-01
  4.8985356e-04
 -3.1496803e-04
  1.5375577e-03
  7.1674673e-04
 -2.8532395e-05
 -4.0842703e-04
  2.2042535e-05
  1.0958539e-04
  1.6901035e-04
  2.8831058e-03
  9.4228779e-04
 -2.3250244e-04
  1.7131596e+00
  7.6183444e-01
 -1.1377671e+00
 -1.9647764e+00
 -1.2522076e+00
  7.2783566e-01
  1.4302259e-02
  6.3777752e-02
 -1.6030351e-02
  5.3539896e-01
  3.4611712e-05
 -4.2782151e-05
 -7.4308351e-02
 -4.1410412e-06
  4.0855634e-04
 -4.6519245e-04
  1.2330719e-01
  3.3974797e-05
 -2.7873326e-04
  2.1140986e-04
  1.1041989e-03
 -5.8375753e-02
  2.3469056e-01
  1.1448874e-03
 -9.0556398e-02
  7.1487861e-04
 -1.2318854e-02
  5.7232229e-04
 -4.0215373e-04
 -1.6718148e-01
 -1.1305206e-03
  7.7007333e-04
 -3.4791880e-04
 -2.2798055e-01
 -5.1947735e-04
  1.0773847e-04
 -1.8613495e-05
  4.5684257e-01
 -1.0474246e-03
  4.7658582e-04
 -8.6730465e-02
  5.8652031e-01
  2.8682654e+00
 -2.4688004e-02
  3.1856946e-03
 -7.6823744e-05
  9.2791779e-05
  9.2707684e-05
 -1.1324286e-01
  2.3514300e-04
  3.3509315e-04
  2.0319407e-04
 -1.1501515e-03
 -3.7568103e-04
  1.1501580e-03
 -3.9650800e-05
  3.2970967e-04
  2.9871272e-04
  1.2062339e-04
 -4.5144133e-04
  2.5248175e-04
  2.1738760e-04
  2.7308322e-04
  2.0277724e+00
  8.9261031e-01
  4.7311339e-01
  2.3294961e+00
  2.1580410e-01
 -1.0791192e+00
 -2.4479996e-01
  6.4078271e-01
  1.5511622e-01
  2.1335037e+00
 -3.5078524e-04
  1.5161398e-03
 -4.0838322e-01
 -4.1449440e-01
  4.0960732e-01
  5.1724276e-04
 -4.3204889e-02
  1.6818565e-01
  1.1569567e-04
 -6.1642067e-03
 -2.6794091e-01
  9.2235494e-01
  2.1242807e+00
 -1.1897851e+00
 -2.6795796e-01
  2.9891452e-01
  3.0197310e-03
  3.8409591e-01
 -1.5476203e+00
 -8.7055421e-01
  3.1000783e-03
 -7.6928312e-01
 -5.1947522e-01
 -1.0270185e+00
  7.0096453e-04
  2.2290868e-01
  5.2580709e+00
  2.7843848e-01
 -2.1881380e+00
  1.0176539e+00
 -7.9734039e-01
  1.9715525e+00
  2.3809667e+00
  8.1738704e-01
  7.3691368e-01
 -3.0868095e-01
  2.4480580e-01
  1.6609855e-01
 -8.6569802e-05
  2.5167284e+00
  1.1919425e-04
 -3.0640751e-04
 -6.4833425e-02
 -3.8362682e-02
  1.0432054e-03
  6.3675026e-05
 -3.4722943e-05
 -7.0148839e-05
 -7.6972792e-04
 -2.3307131e-05
 -7.1554321e-01
 -1.6047993e-03
 -2.0181897e-04
 -3.4081049e-03
  1.4866295e-03
 -3.8571062e-04
 -2.5081972e-04
 -5.6953443e-04
 -5.2802975e-04
 -9.4524672e-04
  1.8087178e-04
 -1.1505021e-04
 -6.7018223e-04
  1.6234666e-05
  2.2645107e-04
  1.9724837e-03
 -9.9134131e-04
  7.6518802e-05
 -5.7330768e-04
 -9.1640826e-04
 -3.3695687e-05
  1.6604236e-04
 -1.2403067e-05
  2.6986669e-04
 -3.0029498e-04
 -1.6382060e-04
 -2.2608025e-05
  6.3227577e-05
 -7.4043797e-05
  8.5700135e-04
  3.6461797e-04
  2.2693251e-04
  5.2617333e-04
  2.7870151e-04
 -1.9586728e-04
  1.6179425e-04
 -1.4836363e-04
 -8.9278132e-05
 -9.7918371e-04
  2.8667707e-04
  5.2383868e-04
 -5.3627166e-04
  2.5932092e-04
 -2.2502274e-05
  3.3990815e-04
  1.7251344e-04
 -7.5235519e-05
  4.0847695e-04
 -4.3958498e-04
  3.4320456e-04
 -3.7075349e-04
  3.1617907e-04
  9.8354991e-05
 -8.3773712e-06
  9.4796327e-04
 -7.0393825e-04
  4.1119938e-04
 -6.5948698e-04
 -2.4542911e-04
  4.3371005e-04
  4.9841654e-04
 -1.2559337e-05
 -1.9397297e-04
 -9.2453120e-05
  6.1541656e-04
  1.6030073e-04
 -1.3917460e-01
 -2.2537258e-02
 -7.3436613e-04
  1.7618147e-03
 -3.2932334e-05
 -2.3251318e-03
 -7.5146657e-01
  3.4226334e-05
  8.0577808e-04
 -2.0897381e-03
  2.8505106e-04
  7.9698541e-04
 -2.8328600e-04
  7.0895004e-04
 -2.3452147e-04
 -8.3882821e-04
  6.7978443e-05
  4.7875149e-04
  1.6111451e-03
 -7.1602513e-04
  9.5642864e-04
  2.3520381e-04
 -9.8625384e-04
 -1.7315241e-02
 -1.9169934e-04
  8.1679966e-05
 -8.7280455e-04
  1.1585782e-03
 -2.4102750e-04
 -7.1512221e-04
 -5.9209364e-05
  1.7098698e-03
 -2.3808089e-04
 -4.4159152e-04
 -4.3349326e-04
 -5.2702357e-04
 -5.3088076e-04
 -8.5722678e-04
  2.0657186e-05
 -4.8259573e-04
  3.0009355e-03
  7.8781566e-05
 -7.2932402e-03
 -9.6603314e-04
  1.9319539e-04
 -2.1545987e-03
 -2.4029006e-04
  5.1358409e-05
  5.7491905e-04
 -5.0422881e-04
  8.2862643e-05
  6.9429033e-04
 -1.3555233e-05
 -3.8155064e-04
  1.3332420e-03
  6.7228102e-04
 -6.0165144e-06
 -7.7309393e-05
  1.1173900e-04
 -8.4437418e-04
  6.8699199e-05
 -2.2973456e-05
  3.9530074e-04
  1.9180082e-01
 -7.7055854e-01
 -1.8967650e+00
 -3.8927671e-01
  5.0492687e-05
  6.8880153e-01
  2.2167805e-01
  1.0603913e-01
 -4.9121324e-02
  4.8670778e-03
 -1.9325827e-04
 -6.7846791e-04
 -7.8700376e-01
 -1.8928967e-03
 -1.8400929e-04
 -2.7524546e-04
  3.1232646e-01
 -1.1672460e-01
 -4.8063978e-04
  8.8233902e-04
 -5.1320024e-04
 -2.4371970e-02
  1.3021940e-01
  4.0112867e-05
 -1.8906002e-01
  3.6919175e-03
 -1.3476166e-01
  1.7129647e-03
 -2.4069088e-04
 -1.3090569e-03
 -1.0106815e-03
 -4.8835790e-01
 -1.3314110e-04
 -5.5236495e-01
 -4.6505310e-04
  8.9017703e-04
 -2.4484940e-01
  2.0382350e-04
  9.9702269e-02
 -3.9009017e-01
  7.3686719e-02
  1.8664207e-02
  6.3995659e-01
 -5.0316605e-04
  6.3672882e-01
 -4.5136474e-03
 -6.6310102e-05
  5.5170630e-04
 -9.9284247e-05
  3.3326305e-02
 -1.7634446e-04
  1.5303264e-04
 -4.9415271e-04
 -2.3273572e-02
 -1.6910293e-04
 -4.2865999e-04
  1.3313773e-04
  2.1066878e-04
 -6.6200231e-04
 -1.7120221e-03
 -1.0045323e-03
 -9.6785900e-04
  9.8441239e-04
  9.7899961e-01
  2.2720487e+00
 -3.5872748e-01
  3.2527051e+00
 -2.7822361e+00
 -1.3110348e+00
  2.7244008e+00
 -2.4658589e+00
 -2.8408935e+00
  2.4413139e-01
  3.5494257e-02
 -3.5092273e-01
  3.7989080e-01
 -2.0655212e+00
 -9.7766948e-01
 -4.9061117e-01
 -6.4547658e-01
 -3.6025923e-02
  5.6485677e-01
  8.1983209e-01
  1.4112641e-01
 -1.5339556e+00
 -3.0238359e+00
 -7.1095413e-01
  7.8242260e-01
 -5.0692463e-01
 -9.4248962e-01
 -2.5907585e-01
 -1.3494754e+00
  6.7876947e-01
 -1.3583014e+00
 -1.2564245e-01
 -2.3810830e+00
  1.8021812e+00
 -2.1024997e+00
 -1.4132991e+00
 -1.6992561e+00
 -1.0011978e+00
  1.4606200e+00
 -3.1487842e+00
 -6.7035481e-02
 -2.8924506e+00
 -2.0001776e+00
 -1.8006904e+00
 -2.6050203e+00
 -5.4352736e-01
 -5.3190859e-04
  4.5937221e-03
  2.6808829e+00
 -5.1445672e-03
 -5.8102648e-04
 -1.5134189e+00
  1.8402077e-01
  1.8025180e+00
  6.2738184e-04
  1.8520545e-03
  6.2540996e-05
  1.9071462e-02
  1.8121980e-04
 -2.4469984e-03
 -8.1034412e-04
  5.5932742e-01
  1.5228409e-02
 -2.5968711e+00
  2.0060238e-01
 -2.6335477e-04
 -1.0444963e-01
 -5.6727917e-05
  1.2455214e-04
  2.6150636e-02
  5.4351270e-01
 -8.0814963e-04
  4.3938409e-05
  7.7076710e-04
 -3.8071958e-05
 -3.0458620e-04
 -1.1837437e-04
  6.6189974e-04
  7.0095231e-04
 -5.3423224e-04
 -1.8198746e-04
  1.6587730e-04
 -1.9899344e-03
  8.8175194e-04
  5.2244690e-05
 -6.2890089e-04
 -2.9954634e-05
  4.0391507e-04
 -4.3721922e-02
 -2.3504668e-05
  4.9083703e-04
 -1.0972159e-03
  7.9134996e-05
  2.5424661e-04
 -2.5301581e-04
 -7.7465520e-05
  2.9273226e-04
 -8.0449572e-05
  1.7304491e-04
  5.9942110e-04
  2.7092850e-05
 -7.8138564e-04
 -1.2881939e-05
 -2.4581625e-05
  2.6735893e-04
  1.8437702e-03
  4.4016371e-04
  1.6666288e-03
  9.4615010e-05
 -1.1126751e-03
  1.8320422e-04
 -2.2837701e-03
 -4.3533655e-04
  2.3795232e-04
 -8.7630609e-04
 -4.2245464e-04
 -1.0461008e-04
  6.3443964e-04
 -1.0499045e-03
 -3.5876583e-04
 -1.4522889e-04
  1.0455772e-04
 -1.2617834e-03
 -3.6124594e-04
 -1.1275990e-03
 -1.6767674e-03
 -8.0527568e-01
 -1.8733104e+00
  1.3355912e-04
 -2.7420411e-01
 -4.0710780e-01
  6.4777203e-05
  1.8835279e-01
  1.7670243e+00
 -3.4882692e-01
  4.5945490e-04
 -5.4963434e-04
  1.3774283e-03
  5.5187172e-04
  2.2049692e-04
  1.9806584e-04
  1.4676952e-03
  1.3987249e-03
  1.9490033e-04
  2.7449301e-04
  2.6433428e-03
  6.5456255e-04
  6.3532329e-04
 -1.6933502e-05
  5.5240574e-03
 -8.3819189e-04
  5.1229279e-05
  2.7823318e-03
 -4.2042771e-04
  3.9118713e-05
  9.1702204e-05
  1.6788994e-04
 -7.1217614e-04
 -4.4670334e-04
 -4.5172266e-05
  6.7923561e-04
  3.4225336e-01
  7.6375723e-02
  2.4057478e-04
  1.6262834e-03
  3.4074188e-04
 -8.3424704e-04
 -3.7363346e-04
  3.2807639e-01
 -1.1180640e-04
  1.0419075e-04
  4.1211469e-04
  9.5059117e-04
 -5.6588335e-04
 -4.2044185e-04
  3.2308165e-04
  4.9253420e-05
  5.2224600e-04
 -7.0883386e-04
 -2.0163730e-04
 -1.5959058e-05
 -4.4823912e-04
 -1.2702971e-04
  7.0844148e-04
 -1.6335418e-04
 -8.3469629e-04
 -9.2284681e-05
 -1.8450327e-04
  1.2610375e-04
 -1.1941471e+00
 -6.0966885e-01
  5.1612605e-04
  3.6771296e-04
 -4.3283368e-04
 -8.2052749e-05
 -1.1378069e-01
 -7.7571966e-02
 -9.8218043e-05
  6.8421371e-04
 -3.1490205e-04
 -7.4864867e-05
 -1.1129583e-03
 -8.0890697e-04
 -2.0855285e-04
  7.5719843e-04
  9.7289518e-02
 -1.3264951e+00
 -1.7146366e-03
  7.7343301e-04
  3.2002822e-04
 -7.7908382e-02
 -3.6670885e-04
  7.7393441e-04
  6.6067058e-01
  8.3349571e-03
 -6.3451856e-02
 -8.9186378e-04
  2.7966706e-04
 -1.4774596e-04
  8.5195428e-04
 -6.8607240e-04
 -5.1796243e-05
  2.4165283e-04
 -4.0364798e-04
  1.8554302e-02
 -1.4057536e-05
 -7.1036688e-04
  2.7495477e-04
 -1.3247963e-04
  2.3966076e-04
  4.6360539e-04
  9.4427783e-03
  1.4034138e-02
 -9.0129577e-02
  3.0462243e-04
 -1.4836481e-04
  2.6110758e-04
 -1.4165514e-04
  5.7044046e-05
 -7.2743827e-03
  2.8953655e-04
  2.4089831e-04
 -1.6369935e-05
  3.7098670e-04
 -6.6320470e-04
  1.0785386e-04
  1.7754866e-04
 -1.0653492e-05
  6.5829372e-05
 -1.5211930e-03
 -2.4139899e-04
  6.3112838e-04
 -8.7211154e-02
 -1.5665984e-04
  9.8081640e-05
  8.1913728e-05
 -3.4151872e-04
 -1.8590262e-04
  3.8089370e-04
 -1.4888561e-04
 -2.5799396e-04
 -5.8963185e-05
 -6.4420696e-05
  2.3514118e-05
  1.1641557e-05
  4.1198180e-04
  2.6210942e-04
 -2.4487948e-05
 -1.7649539e-04
 -1.0616000e-04
  1.1674000e-04
  3.9588677e-04
  7.7844039e-04
 -2.9146558e-04
 -6.0950790e-04
  9.1345508e-05
 -7.0768874e-04
  5.5572960e-05
  1.2887636e-03
 -6.3425774e-05
  4.1907013e-05
 -3.2590612e-04
  4.1458689e-04
  3.6794430e-04
 -5.9206807e-04
 -2.1641482e-04
  5.0412182e-04
 -2.5801340e-04
  2.1313509e-04
 -3.0659034e-05
 -5.9930877e-05
 -1.5892058e-04
 -1.2779984e-03
 -2.2328884e-04
  1.7169709e-04
  7.6382064e-05
  1.3716720e-04
 -1.0967041e-04
 -6.6404085e-04
  1.9720434e-04
  5.0728454e-04
 -1.0055237e-04
  4.6538986e-04
 -1.8587583e-04
 -2.0388674e-03
 -2.3015335e-04
 -5.3966220e-04
  1.6411295e-04
  4.2804773e-04
 -1.8652575e-04
 -2.3248029e-04
  3.2449226e-04
 -6.4388587e-04
 -4.2293346e-04
  6.7086931e-04
  6.1120976e-05
  3.3598204e-04
 -4.5964189e-04
  1.0122925e-03
  6.0544815e-04
  2.9387511e-04
  1.1940854e-04
 -2.4417436e-04
 -1.2316379e-05
 -1.1944879e-04
  8.1907456e-05
  2.4156865e-04
  2.7640260e-04
 -7.3365984e-04
  1.7007164e-04
  1.7884000e-03
  1.8454831e-04
  3.9164943e-04
 -5.6260586e-04
 -1.8290229e-04
 -1.4411176e-04
  5.4736462e-05
 -7.3209653e-06
 -4.2834357e-04
  1.8338645e-04
  5.3297845e-04
 -2.0864703e-04
  2.6254612e-04
 -2.3558653e-06
  2.1211794e-04
  1.9818715e-04
  2.4738323e-04
 -6.5841922e-04
 -2.1513298e-04
 -3.7475035e-04
  2.7757633e-04
 -3.2842037e-04
  3.9791379e-05
 -4.6262896e-04
 -1.0145565e-04
 -3.4914288e-04
  4.6927060e-04
  2.6846537e-04
  3.5733268e-05
 -2.8571251e-04
  1.0614295e-04
 -9.5996674e-04
 -1.0703764e-03
  1.1519571e-04
 -3.6482204e-04
 -2.7528111e-05
  5.0205522e-04
  3.0563696e-04
 -4.3918955e-04
 -1.5427108e-04
  2.4334321e-04
  4.5282952e-04
 -1.6757143e-03
  1.3954527e-05
  6.8367270e-05
 -1.9297020e-04
 -3.7435915e-05
  1.4766818e-04
  1.3149910e-04
 -3.6448098e-04
 -1.2871152e-04
  2.1900365e-04
 -9.8523998e-04
 -1.8913393e-04
 -6.7041174e-04
 -7.1116380e-04
  5.8545679e-04
 -2.8616632e-04
 -2.1766186e-04
 -1.1529373e-04
 -8.8299823e-04
  3.9003012e-04
  7.4346754e-05
  7.0518763e-05
 -3.7642001e-04
 -8.0397564e-05
 -1.9531719e-04
 -7.2437098e-05
  2.5947782e-04
  2.6800032e-04
  7.7609569e-05
 -2.2262715e-04
 -1.4794092e-03
  4.4761982e-04
 -1.8281881e-04
 -1.5921993e-04
 -2.7526100e-04
  3.6819070e-04
 -6.7353755e-04
  6.0119090e-04
 -2.1383954e-04
 -2.9988636e-04
  6.8903901e-05
  6.1877962e-04
 -1.1694409e-03
 -3.8897345e-04
  2.1544621e-04
 -6.0311995e-05
  7.3609612e-04
 -1.3579029e-04
 -7.1309034e-05
 -4.2437925e-04
 -1.5060020e-05
  1.4797701e-04
  1.2109921e-06
  1.3877179e-04
 -2.2004333e-05
  2.8115456e-04
 -5.8020279e-04
 -2.1775918e-06
  1.2720430e-04
 -2.8790536e-04
 -9.1623812e-04
  6.4413383e-04
 -4.6122467e-04
 -2.5052429e-04
 -1.6004742e-04
  3.1654458e-04
  7.6284174e-05
  9.1488456e-04
  6.6274730e-04
 -6.8671083e-01
 -2.1625111e+00
  2.4400045e-04
 -2.5889003e-03
 -1.0921997e-01
 -2.9244655e-04
  2.3519038e-03
 -1.0116966e+00
 -8.7432265e-02
 -1.3534562e-04
 -9.7957882e-04
 -2.4840550e-04
  1.3432385e-03
  8.3485880e-05
  2.2667766e-04
  3.2608261e-04
 -7.7492371e-04
  1.9181709e-04
  3.3503841e-04
  2.0025730e-04
 -2.3124147e-04
 -2.1445240e-04
 -1.1825302e-03
  7.0548017e-04
  9.5377344e-04
 -1.1136775e-03
  4.1284784e-06
 -1.5602844e-05
  9.3918119e-04
  1.3748179e-04
 -3.2171881e-04
 -8.7639975e-04
  3.8255064e-04
  3.3841131e-04
 -8.4833468e-05
 -5.9964015e-05
  2.7253895e-05
  4.3082956e-04
  1.9623956e-04
  8.2512584e-04
 -2.3721154e-04
 -7.8122620e-04
  7.2873924e-03
 -4.6107036e-04
 -4.2290491e-01
 -3.1703638e-04
 -4.2330267e-04
  1.2212782e-03
  3.0714297e-04
 -2.0698777e-04
 -1.5204429e-05
 -2.7619718e-04
  1.1813198e-03
  1.2371209e-04
  3.2948228e-04
  7.5504056e-04
  6.8286347e-04
  2.1361322e-04
  3.5656145e-04
  1.7245162e-04
 -4.4641006e-04
  1.4521187e-04
 -2.3612406e-04
 -6.9501394e-01
 -9.5837456e-01
 -1.5234865e+00
 -3.2637039e-01
  2.1788981e-04
 -8.6062789e-01
  5.6810349e-02
  9.0353228e-03
 -9.2269796e-01
 -1.4201497e+00
 -7.6049467e-04
  5.4966129e-02
 -7.2841299e-01
  9.9921560e-01
 -2.9933599e-03
 -1.7955941e-03
 -2.6670173e-02
  2.7112412e-01
 -2.3460092e-01
 -2.3422174e-01
  2.3718290e-02
  2.8978882e+00
  1.5413199e-01
 -3.5710013e-01
 -4.2677078e-01
 -1.3943008e+00
  1.5296043e+00
  3.6104140e-01
  1.6362269e+00
  2.6210287e-01
  6.4701446e-05
  4.7307014e-01
  2.7641496e-02
 -5.3866726e-01
 -1.4626291e-01
 -9.7700489e-05
 -9.4479889e-01
 -2.2379519e-02
  3.3945849e-04
 -9.1666490e-01
 -7.1033901e-05
  3.9021087e-01
 -8.2231724e-01
 -1.0871422e-01
  1.8713859e-01
 -2.4248107e-01
 -1.9680724e-02
  2.6324528e-04
 -1.6305402e-03
  8.5920829e-01
  5.3809579e-02
 -4.1683763e-04
  1.2313536e-03
 -7.0953768e-01
 -5.3473131e-04
 -4.5513117e-04
  2.0644958e-04
  1.9665399e-04
  3.8465217e-04
 -9.8282017e-04
  2.3304594e-04
  1.9363427e-04
  3.3681997e-04
  6.4347851e-01
 -4.5027289e-01
 -1.7643239e+00
  1.1107594e+00
 -2.2212794e+00
  1.9262516e+00
  1.3779434e+00
 -9.6856844e-01
 -1.1832172e+00
  1.7981129e+00
 -1.3667419e+00
 -7.5559509e-01
  5.3942168e-01
 -2.5629909e+00
 -7.8613746e-01
  1.8460239e+00
 -1.0419455e+00
  2.3153443e+00
  1.6819471e-01
 -1.4230868e+00
 -2.1857173e+00
 -1.5655734e-01
  1.5189826e-01
 -2.8892605e+00
 -7.6396728e-01
  8.6264873e-01
  4.9516749e-01
  1.9250912e-04
 -1.3974595e+00
 -8.9355856e-01
 -1.9330797e+00
  1.9371723e+00
 -1.8713835e+00
 -3.6363348e-01
  1.5377376e+00
 -2.2180672e-01
 -1.5312305e-01
  3.6447984e-01
  4.0245134e-01
  3.2988746e+00
 -2.0745227e+00
 -1.3084333e-01
 -1.9763595e-01
 -1.0777959e+00
  3.5285696e-01
 -2.6419896e-03
  1.2996585e+00
 -1.1415133e-04
 -1.3193475e+00
  7.1521205e-01
 -6.1028010e-01
 -1.4388078e-04
 -5.8741587e-01
  6.5732497e-04
 -7.6266233e-04
  1.0656116e-04
  4.4204891e-04
 -1.1774987e-03
 -3.4124315e-01
  1.1950227e-04
 -6.1461853e-04
  4.2179203e-05
 -5.6009518e-05
  1.0054566e+00
  9.7641236e-01
  4.3896174e-01
  1.1204319e-01
 -9.5618832e-01
 -1.5906554e+00
 -6.0898614e-01
 -1.2426995e-01
  2.0181048e+00
 -2.0160635e+00
 -1.0960513e+00
  2.9360529e-02
  6.6879076e-01
  2.8809602e+00
 -1.1810164e-03
  1.5572357e-01
 -6.8346804e-01
 -9.6957511e-01
  2.2053203e-02
  9.3794388e-01
 -1.4238902e+00
  1.4631622e+00
  1.0944176e-01
  6.1796397e-01
  3.7417454e-01
 -5.4672800e-02
  1.0372514e+00
  6.2323654e-01
  1.0546505e+00
  2.0510549e-04
 -6.7816299e-01
  1.3960770e+00
  2.6081115e-04
  7.0118278e-01
  5.7994670e-01
  7.5816995e-01
  4.0150609e+00
 -4.0057112e-02
  4.7162674e-02
 -6.9670284e-01
  1.1736584e+00
 -1.3388155e-02
 -5.2501303e-01
 -1.3706023e-01
  6.3518459e-01
  2.0439695e-03
 -7.9847523e-04
 -1.0396906e-03
  9.5223075e-01
 -4.2373332e-01
  5.0770689e-04
 -2.5344070e-04
 -8.0116537e-05
  2.3547131e-01
 -1.9041642e-04
 -4.3135000e-04
 -1.9046065e-04
 -6.8214681e-04
  4.4363161e-04
  3.5637195e-04
  2.2937821e-03
 -4.0098748e-04
 -1.2747383e-02
  4.4558299e-05
 -1.8532701e-03
  6.2325865e-04
  5.5119535e-04
  1.6229523e-03
  1.5070623e-04
 -6.2622514e-04
  9.5152098e-04
 -8.7192771e-04
 -3.2136132e-04
 -5.7439454e-04
  2.0928954e-04
 -2.8130406e-04
 -3.5278627e-04
  3.6817111e-04
 -1.2509252e-03
  4.0261704e-04
 -7.9241872e-04
  1.0917336e-04
 -6.7931641e-04
  6.8883953e-04
 -5.5844313e-04
  1.3450824e-04
  1.1867403e-04
 -8.7322365e-04
  1.2612264e-04
  1.6377216e-04
 -2.3100218e-04
 -5.4396060e-04
 -3.3636956e-04
 -9.4427919e-04
 -3.6674264e-04
  7.4024237e-04
  6.2747269e-05
  4.5440782e-05
 -1.9643789e-04
  1.3924354e-04
  1.2727146e-03
 -1.0198383e-03
 -1.8268336e-03
  5.8786577e-04
 -2.3213081e-04
 -6.6195882e-04
  7.1614042e-05
  8.6555210e-06
 -1.8453633e-04
  3.0775226e-04
  2.9487751e-04
  1.2237213e-03
  7.4635335e-04
 -4.0064353e-04
 -3.0676249e-04
  8.6533051e-05
 -4.5137544e-04
 -3.5432502e-04
 -2.3243875e-04
  3.5966875e-04
  4.5941997e-04
  7.9567435e-05
 -3.2062182e-04
 -9.4840047e-04
 -7.9916825e-04
  1.6559870e-04
  6.1535086e-02
  4.3521762e-01
  1.6474667e-01
 -1.9876643e+00
  2.5615954e-01
 -2.5566489e-01
 -8.0268973e-01
 -1.0520284e+00
 -1.3194118e+00
 -7.6471710e-01
 -7.9256690e-01
  6.9512217e-04
 -9.4767040e-01
 -1.2707424e-01
 -4.2983016e-04
 -9.6664470e-01
  1.3123425e+00
 -2.7601026e-02
  5.0087667e-01
  1.1810741e+00
 -3.2453579e-01
 -7.3848359e-02
 -1.5563941e-01
 -5.1936880e-03
  4.0765135e-03
  7.4716967e-01
 -4.7663793e-01
  2.1890379e-04
  1.2747291e-03
  6.0902745e-04
 -1.4140739e-04
  8.4815878e-01
  7.0552708e-04
 -3.7162639e-03
 -4.6231598e-04
  3.0888661e-04
 -5.4505572e-02
  1.3642851e-03
  1.4102033e+00
  1.7265718e-01
  3.4469354e+00
 -5.6227995e-04
  7.2594988e-01
  9.8444195e-04
 -1.5601187e-03
  1.7894999e-04
 -1.6430868e-01
 -7.2774361e-04
  1.4309202e-01
  1.0097271e+00
  4.5988712e-04
 -3.6683481e-04
  5.9924670e-04
  6.0105616e-05
  4.4217313e-04
 -1.0790896e-03
  3.9244836e-04
  2.0558089e-04
 -1.7546995e-04
  5.3549622e-05
  3.0512229e-04
 -5.5903866e-04
  3.7118418e-05
  1.9556540e+00
  1.2616345e+00
 -2.3208060e+00
 -2.0065989e+00
  5.9834498e-01
 -2.1861553e+00
 -5.6959660e-04
  2.5406785e+00
 -3.2231084e-01
 -2.2479380e-02
 -1.3598375e-03
  4.0870902e-01
 -7.7492291e-01
 -2.6759693e-01
 -1.0170854e-04
 -1.6183278e-02
  1.9242266e-01
 -1.9870239e+00
 -4.0996876e-02
  6.6499515e-03
 -2.7671205e-02
 -4.2956495e-01
  6.4467683e-02
  2.0521152e+00
  7.2568488e-01
  2.2638861e-02
  1.5085015e+00
  1.0567579e-04
 -6.7972462e-04
  2.0222728e-07
 -3.9572460e-03
 -1.7671113e-01
 -4.7673876e-04
  1.4513162e+00
 -1.2187969e-01
  4.3580815e-01
 -2.5820711e-01
  1.1150713e-01
 -7.5838558e-05
 -1.2642619e-03
  4.2004088e-01
  1.5634692e+00
 -3.5522345e-01
 -1.2902042e-01
  9.5577729e-01
 -1.1547455e-01
 -1.0861598e-03
 -3.4733553e-04
 -4.9716312e-01
  2.5630686e-01
  5.1203812e-03
  6.6556456e-04
 -2.3333846e-04
 -1.7666483e-01
 -1.1583975e-04
 -1.8764597e-03
 -9.1836520e-04
 -9.7593840e-04
 -6.1265024e-04
  4.4387730e-04
 -4.3906970e-04
 -4.8302021e-03
 -4.4242188e-05
  4.4045520e+00
 -2.5319729e+00
 -6.1437320e-02
 -1.4408603e+00
 -3.0154996e+00
 -1.5708055e-01
  1.5963477e+00
 -6.5672050e+00
  1.5178425e+00
  1.6175369e+00
  1.1946918e-01
  4.2430356e-02
  3.2509028e-03
  3.3635457e-04
 -4.7468281e-04
  2.2997587e+00
 -1.1176463e+00
 -4.0974551e-01
 -5.5882382e-01
  3.8284630e-02
  4.2193696e-02
 -8.2965714e-01
  3.6349529e-01
 -7.7357846e-01
 -2.2357693e+00
  5.3224045e-01
 -1.6539268e+00
 -1.8812750e-01
 -1.9626743e+00
 -7.1630377e-01
  3.1743966e-02
  1.0527586e+00
 -1.6362868e-04
 -4.6089748e-01
 -1.0118381e+00
 -1.7742088e-01
  7.0995338e-02
 -2.0639696e+00
 -2.8552687e-01
  1.3721161e+00
  1.8830931e+00
 -1.3445978e-04
  1.0928328e+00
  1.3781524e+00
 -2.8914418e+00
  4.4530421e-04
 -1.9908499e-04
 -8.4143906e-04
 -3.4510635e-03
 -3.1724772e+00
  3.3191399e-04
  1.0120093e-03
  2.0778872e-04
 -6.9479509e-05
 -2.5168157e-04
 -2.2665299e-04
 -6.9593036e-05
  3.2780174e-04
  6.3629868e-04
 -6.5371470e-04
  3.3400513e-04
  9.5203461e-05
  1.3023052e-04
 -4.9391875e+00
 -3.1079457e+00
  1.6425239e-01
  1.0659688e-01
  2.4617972e+00
  3.0401449e+00
  1.2111831e+00
 -2.0241606e+00
 -1.5171022e+00
 -1.9996284e+00
 -2.0968890e-02
 -3.5232190e-02
 -4.1206522e-04
  1.8602283e+00
 -2.9407796e-01
  1.6329805e+00
  9.2767489e-01
  2.1551986e+00
  1.6232203e-01
  1.7062663e+00
 -1.1008930e+00
 -1.3856926e+00
  4.7107017e-01
  1.7108998e+00
 -8.3894318e-01
  1.8968445e+00
 -1.1651465e+00
 -1.3704320e+00
  2.0490324e-02
  5.2550745e-01
  4.2969167e-01
  5.5447865e-01
  1.4967771e-03
 -3.0317932e-02
  8.7570806e-04
 -4.3064523e-03
 -1.3026416e-02
 -1.5561527e-02
  3.3337656e-01
  8.3996514e-05
 -2.8823221e-01
  3.2419544e-02
  7.6686785e-02
 -9.2539036e-01
  9.4495937e-03
  3.0832011e-02
  9.5176343e-05
 -1.4998966e-05
  1.0679778e+00
  1.0117604e+00
 -3.9316007e-04
  4.8299591e-04
 -8.4741265e-02
  5.4693006e-02
  1.9841913e-04
 -2.5484609e-04
  4.3580565e-04
 -2.4130069e-04
  3.2181037e-05
  3.0446850e-04
  2.3967646e-04
  5.7417065e-01
 -1.2172677e-04
 -2.5655865e-04
  1.1005664e-04
 -9.5103103e-05
  3.8208127e-05
  5.9604546e-04
 -1.1624020e-04
  3.2230517e-05
 -1.7290682e-03
 -5.2024861e-04
  4.0734673e-04
  2.0531905e-04
 -3.6354634e-04
 -2.0697035e-03
 -6.3171021e-05
 -1.7516226e-04
 -2.2756234e-04
 -5.9776299e-05
  3.0294727e-04
 -1.8853378e-04
  4.8787441e-04
 -9.4992844e-05
  2.6495979e-04
  7.9999008e-04
  1.3173012e-04
 -2.1035306e-04
 -5.7930309e-01
 -1.6305612e-03
  1.5378723e-04
  6.0306699e-04
  1.9927580e-04
  3.4544582e-04
 -1.9725788e-04
  3.0065770e-04
  5.7617821e-05
  2.4724074e-04
  1.2071231e-04
  3.2882022e-06
 -6.1983192e-05
 -7.0294940e-05
  1.5525333e-05
 -6.4049661e-04
 -3.2924104e-04
 -3.4020304e-05
  6.7171425e-04
  1.8841155e-04
  9.5098425e-05
 -4.5337796e-04
  4.6076748e-04
 -1.1777888e-04
 -1.0501337e-03
 -6.2035385e-04
  1.2387880e-03
 -7.4113725e-04
 -3.4580106e-04
 -3.5425820e-04
 -2.8882851e-04
  1.3251996e-04
  4.5426987e-04
  1.1010279e-03
 -1.0911040e-04
  1.0511890e-03
 -1.2798667e-03
 -4.7113170e-04
 -1.5782965e-02
  4.8975344e-04
 -1.4484923e-04
  6.6470215e-04
  6.1764964e-05
 -1.9919227e-05
  1.1727051e-04
  3.1866462e-04
 -7.5055112e-04
 -2.5394527e-04
  2.3930629e-04
  1.4927896e-04
  2.6280634e-04
 -3.8998006e-04
 -4.0502324e-05
 -4.8316983e-04
 -2.3106215e-05
 -2.4290636e-04
 -2.4570525e-04
  1.4252369e-03
  3.2068507e-04
 -1.7196454e-04
 -5.0091872e-04
  1.1736816e-03
  1.0464077e-04
 -2.0104201e-04
 -2.4557702e-04
 -4.5452136e-05
 -1.3110921e-04
  3.5886795e-04
  3.3713554e-04
 -2.1062368e-03
 -1.6879987e-04
  1.6095433e-04
 -2.1422621e-04
  1.0623402e-04
  3.9373492e-04
  1.1104502e-03
 -1.1581794e-04
  3.4859864e-04
 -4.6162549e-04
 -3.3874088e-04
  3.0500588e-03
 -5.5213855e-04
 -1.5586670e-03
  2.7709056e-04
 -1.1093752e-04
 -3.0610847e-04
 -1.4811145e-04
  2.0693365e-04
  3.9291993e-04
 -2.8210349e-04
  7.1844515e-05
  3.3775385e-04
  4.1464207e-04
 -8.2821687e-05
  8.8796427e-05
  3.5639640e-04
  2.1119897e-04
 -4.8053919e-04
 -3.1644141e-04
  3.7519247e-04
  2.7356998e-04
  8.7445788e-02
  8.4382582e-01
 -3.3652978e+00
 -1.4638951e+00
 -6.9437003e-01
  1.0759891e-01
  2.8590591e+00
 -5.5696812e+00
 -2.5842297e+00
 -6.6845524e-01
 -4.6954101e-01
 -1.9289734e-02
 -4.9164221e-01
  2.8879335e+00
 -3.9097868e-05
 -9.0225708e-01
  4.4179134e-02
  5.1109500e-02
 -3.9434975e-01
  4.2355815e-01
  1.6240339e+00
  1.4919543e+00
  1.5984076e+00
 -1.8516798e+00
 -1.7508595e-01
  1.1286092e+00
  2.3599439e+00
  6.0107851e-01
  1.5020815e-01
 -5.3392275e-04
 -8.3537871e-01
  2.3155703e-01
  4.2528227e-01
 -2.4086292e-01
 -4.9793892e-02
  3.3698246e-01
 -1.4167358e+00
 -3.9765677e-01
  1.9641483e-01
 -1.0357608e+00
  2.8818161e+00
  5.0961190e-01
 -1.7765953e-01
  1.4629818e-03
 -1.8865246e-02
 -2.5165270e-04
 -2.3437737e-01
  1.5147373e-03
 -5.5633787e-02
 -1.9010793e+00
  3.7494141e-03
  2.2068429e-04
 -1.3176647e-03
 -4.8595291e-04
 -9.7173004e-04
 -6.0228173e-05
  5.4122036e-05
 -1.4129992e-03
  1.0388525e-03
  5.6703755e-04
 -9.7971417e-05
 -2.2695091e-04
 -6.5597449e-04
  1.3574671e-02
 -2.2233996e+00
  2.8499446e-04
  1.0106728e+00
 -1.5293028e+00
 -1.1207415e+00
 -1.4721730e-01
 -8.8325185e-01
  4.9440175e-01
  6.4136386e-02
  4.0323544e-01
  2.4912346e-04
  6.2413439e-02
 -8.8798511e-01
 -5.9069251e-04
 -7.5080819e-02
  1.7445726e-02
 -1.7704140e+00
 -9.4567070e-04
 -3.3168763e-01
  5.3111283e-04
  1.2135118e+00
 -6.6474028e-02
  6.4289790e-01
  4.6528944e-01
 -5.6120468e-04
 -3.5619002e-04
 -1.3207084e+00
 -1.9784378e-04
  7.8880863e-04
  9.2809878e-02
 -5.6517300e-05
  1.1717388e-04
 -1.4424478e+00
 -2.1942890e-01
 -3.2067339e-05
 -1.8015952e-01
 -1.1126482e-03
  7.4354830e-05
  1.1682682e-01
 -5.9947926e-01
 -1.8166423e-02
 -1.5974779e+00
 -7.0745689e-01
 -1.6577122e+00
  1.7447487e-04
  1.7557119e-04
  7.6157227e-04
 -1.9499763e-04
  1.9173221e-04
  2.0552585e-04
 -5.5283931e-04
 -3.2456682e-04
  7.7315174e-02
  5.2796613e-04
 -3.6620334e-04
 -1.2643642e-03
  1.1684165e-03
  3.7987786e-04
 -5.7581119e-04
 -9.1352274e-05
  1.3670945e-03
  1.6511025e-04
  2.5873588e-04
 -6.6025410e-04
  7.2844291e-01
 -1.7117715e-04
 -4.1448784e-05
  1.6135734e-04
  1.5060577e-04
  7.7826343e-04
 -4.7505004e-04
  2.6243032e-04
 -3.3128585e-04
  2.8808056e-05
 -6.8192865e-04
 -1.2740091e-03
 -1.4995807e-04
 -8.8080698e-05
 -4.9522310e-04
 -8.3941712e-05
 -2.6518045e-04
  9.0001471e-04
  8.2991610e-04
 -9.9231931e-04
  5.5173028e-04
  1.7053913e-04
  1.3487277e-04
  1.8933221e-03
  7.3247816e-04
  1.6678801e-04
 -2.2771019e-04
 -6.0037896e-04
 -4.5922675e-04
  1.5264127e-04
  7.0201897e-04
  1.6935336e-04
  4.3907168e-04
 -2.1594379e-04
  4.4362413e-04
 -1.7545262e-04
 -5.0120299e-05
 -2.4501927e-04
  1.0662068e-03
  3.9263655e-04
  8.8623719e-04
 -8.2723411e-05
 -1.6850841e-05
 -7.2630978e-04
  7.6302982e-05
  1.2521907e-04
 -7.9497852e-04
 -4.6558288e-04
  2.0730846e-04
 -6.5354432e-04
 -3.7479275e-04
  4.7590298e-04
  4.6266025e-04
  1.5012985e-04
 -4.5300585e-05
  7.4993924e-04
 -4.4797224e-04
 -2.7407473e-04
 -5.6685360e-05
  3.0745662e-04
 -1.9870709e-04
  2.4596391e+00
  6.0566306e-01
  1.6727229e+00
  2.1495452e-02
 -2.6447318e+00
  9.0255404e-01
 -5.2911207e-02
  2.0200174e+00
 -2.3468568e+00
  8.6930478e-01
  1.7287744e+00
 -7.3689795e-01
 -1.8334068e+00
 -6.6586339e-01
  9.6664357e-04
 -1.6850042e-01
  1.5174493e-01
  1.4028000e+00
  9.8993886e-01
  7.2015598e-02
 -1.2670670e-03
 -1.2516192e+00
 -6.4185941e-01
 -6.8976864e-05
 -1.3209245e+00
 -9.5764720e-01
  2.4042264e-02
  1.6852357e+00
  6.5292412e-01
 -1.4097443e-03
 -2.5295427e+00
  2.5725114e-01
 -5.0232548e-01
  9.4385314e-01
  1.1369939e+00
  2.6815310e+00
 -1.9774055e+00
 -2.7092566e+00
  5.9307933e-01
 -2.0292828e+00
  4.9870182e-03
  5.4448628e-04
  3.6657748e-01
  2.3412378e+00
 -4.5127892e+00
  7.5430544e-03
 -6.2397979e-05
  2.2545891e-04
  1.1384963e+00
  6.6966814e-01
 -1.1207959e-02
  1.6087406e-04
  3.5936321e-04
  9.5402181e-01
  4.0791553e-04
  2.8579550e-05
  4.5809074e-04
  1.0191149e-03
 -6.2041957e-04
  4.7752337e-04
 -1.6320102e-03
  3.7472108e-01
 -7.4876164e-04
  1.1631647e+00
  1.0310791e+00
 -1.7231498e+00
  1.2727935e+00
  5.3473711e-02
  4.8244071e-01
  1.2676326e+00
  6.1038786e-01
  8.1811446e-01
  1.0288625e-03
  1.1234429e-01
  4.2928260e-02
  8.2600331e-05
  2.0554385e+00
 -4.1594778e-04
 -1.0565961e-03
 -2.8019688e-01
  3.4240097e-01
  4.6630146e-04
 -4.8635364e-02
  3.4809670e-01
  6.1205125e-01
  7.3184872e-01
 -6.9509866e-03
  1.6601081e-01
 -1.9763494e-01
  1.5962396e-03
  1.0021285e-01
 -2.0899245e-04
 -6.5387040e-04
 -8.8845758e-04
 -3.7553552e-01
  2.8452851e-04
  2.5951155e-04
 -1.7451176e-02
 -1.0525319e-03
 -5.6555923e-02
  3.0181001e-04
 -6.5833814e-03
 -6.7176472e-04
 -1.3359095e+00
  3.4411132e-02
 -6.1466575e-02
 -8.8756019e-01
  1.2115728e+00
 -2.0698842e-03
 -3.6997438e-04
 -1.0539935e-03
  4.3937255e-04
 -2.1094298e+00
  9.7888023e-02
  1.6089118e-04
  1.4364329e-04
  4.5837657e-04
 -4.8570553e-04
 -1.4867429e-03
 -2.2714486e-04
 -3.1950104e-04
 -1.7611361e-03
 -9.0172762e-05
  4.8082756e-04
 -1.0577046e-03
 -8.6246914e-04
 -4.1548741e-01
  2.7958601e+00
  3.7647045e-01
  2.7718973e+00
  2.6192129e+00
  2.6365018e+00
 -1.5309225e+00
  1.9556619e+00
  1.5714841e+00
  1.7458702e+00
  4.3947566e-02
 -1.2624494e+00
 -1.0792164e+00
  4.3913999e-01
  6.5154755e-01
  2.6877168e-01
  1.6836462e+00
  3.2757280e+00
  1.1499000e+00
 -7.6544657e-03
 -2.8410339e-01
 -1.4270054e+00
  2.5581905e-01
  7.5634855e-01
 -1.3167814e+00
 -4.8858690e-01
 -4.6289587e-01
  3.6044741e-01
 -4.3897021e-01
  3.3914110e-01
  3.6559995e-02
 -1.5409780e+00
 -1.5442240e-01
  1.1377834e-01
  1.3131377e-01
  1.4117385e+00
  1.1153451e+00
  9.4709128e-02
  1.3120203e+00
  8.3091193e-01
  1.3141152e+00
  2.6612890e+00
  1.9617257e-01
 -1.0801824e+00
 -4.2163424e+00
 -4.2250834e-04
  2.2515158e-01
  1.2527845e+00
  8.8554707e-06
  2.1659212e+00
  2.0515819e+00
 -5.9626945e-03
 -9.6463181e-02
  4.2168885e-03
 -2.5093567e-04
 -6.7983399e-04
 -3.4070219e-04
 -3.9807488e-03
 -3.7750282e-04
  2.4189247e-04
  1.5118247e-01
 -7.9311412e-03
 -3.7688854e-01
 -1.0893786e+00
  1.1978567e+00
  2.5823016e+00
  5.2760416e-01
  1.1863638e-05
  1.0152112e-01
  4.2913653e-02
  3.6357396e-05
  6.0334941e-04
 -2.5218891e-04
 -2.6939900e-04
  4.5296092e-05
 -7.8488485e-04
  8.8488541e-06
 -1.7347315e-04
  2.5111271e-04
  9.9203619e-04
  1.1769247e-04
 -7.7845674e-05
 -2.3286075e-04
 -5.9840543e-04
  2.1778774e+00
 -1.8121157e-02
 -5.2212793e-02
  4.8509747e-04
 -5.6594286e-02
 -1.3685999e-04
  1.0941825e-04
  1.7206983e-04
 -6.7159803e-05
 -1.1011040e-04
  6.1832304e-04
  1.4445301e-03
  4.1494815e-05
  6.1579165e-05
  4.2762261e-04
 -9.2644121e-05
 -6.7536550e-04
 -6.9952685e-01
 -6.4480086e-03
 -1.3057759e+00
  2.0546730e-05
 -1.3729265e-02
 -1.0818316e-04
  2.4862194e+00
  1.0812785e-03
  1.7948537e-04
  7.9325575e-05
 -4.1679092e-04
 -1.9017507e-01
  1.5563413e-05
  2.2113331e-06
  1.3362935e-03
  1.2648968e-03
 -6.1342889e-04
 -2.7846472e-04
  1.0982485e-03
  2.1710375e-04
 -1.2286818e-04
 -5.9665722e-06
  2.1954346e-04
  3.7141501e-05
  1.8250976e-04
  1.5498450e+00
 -3.6144313e-01
 -1.2949893e+00
 -9.8952812e-01
  1.4385918e+00
 -2.9803176e+00
  1.4536697e+00
  6.1625630e-01
 -1.6479021e-01
  6.4684515e-04
 -1.1190801e-03
 -1.0602261e-03
 -3.2919061e-03
 -1.3990667e-04
 -6.8073493e-04
 -1.5857680e-01
  4.7913390e-01
 -3.8668901e-01
  1.9970778e-02
  6.9494829e-02
 -6.7693383e-01
  6.3780957e-01
 -9.3683340e-02
 -3.2234415e-01
 -8.4521972e-02
  3.7381792e-01
 -1.2087942e+00
  2.8439963e-01
 -1.6370511e-01
 -3.0940923e-01
 -3.8136572e-02
 -4.5718035e-01
 -1.1314995e-01
 -8.3241146e-05
  1.1324630e-03
 -4.0549043e-01
 -3.0919015e-02
  1.3175213e-01
  4.6742697e+00
 -7.6806314e-02
  5.1074415e-01
  3.2000955e-02
 -3.0944922e+00
  3.7569492e-04
  8.8215268e-01
 -3.0398484e-02
  6.9512916e-04
 -6.2045822e-04
  1.8297882e-03
  1.4209619e+00
 -9.4402805e-02
  8.3270523e-04
  3.7627007e-05
 -1.4968686e-01
  5.8345095e-04
 -4.1117270e-05
  1.3137799e-04
 -1.3768424e-04
  2.2080105e-03
  2.0126085e-04
  1.5761681e-05
  7.1281957e-04
 -2.3030359e-04
  1.5578551e+00
  1.1502012e+00
 -1.2668157e-01
 -2.5447530e-01
  2.8920138e-05
 -3.3130562e-01
 -2.6943855e-02
 -9.1699563e-05
  1.0283655e-02
 -1.2112875e-01
  7.1345635e-02
  1.8525745e-04
  4.6540812e-05
  8.1927598e-02
  3.1776234e-04
 -7.5853773e-04
  7.7242032e-04
  1.9930936e-01
 -3.7990971e-03
 -2.3920385e-02
 -2.5930642e-03
  7.4058610e-01
  9.0480560e-01
 -5.9643090e-01
 -2.2407405e-01
 -1.4961658e-01
 -2.0451790e-02
 -7.1205352e-05
  2.5397702e-04
 -3.3349975e-04
 -8.7593688e-04
  1.9346634e-01
 -4.2458250e-05
 -1.1061912e-03
 -1.1009590e-02
 -1.1957808e-03
 -8.6625111e-01
 -1.2678349e-01
 -2.2826239e-03
  6.3523295e-04
  1.0638083e+00
  1.9619729e-04
 -4.4866788e-01
  1.0089613e-04
 -1.0423676e+00
 -2.0822714e-04
  1.4224152e-04
 -1.0335640e-03
 -2.5555633e-02
  7.0904985e-05
  3.1799758e-03
  1.1698592e-03
  9.9296820e-05
  4.0831103e-04
 -9.4293937e-05
 -4.3300723e-05
  2.3534292e-04
 -1.4293344e-03
  1.8609790e-04
  3.6803988e-04
 -4.8860314e-04
 -1.3074066e-03
  1.3202571e-04
  8.2901819e-04
  5.0658211e-05
 -9.3768678e-05
 -4.4269540e-04
  2.0153646e-03
  1.5092854e-04
  4.6410435e-04
  5.3369335e-04
 -4.0046332e-04
  2.8112088e-04
 -8.5871684e-04
 -7.6026423e-04
 -1.1427061e-04
 -5.8740092e-04
  4.5216904e-04
 -1.8271917e-03
  2.0581289e-04
 -4.5270681e-05
 -5.3568429e-04
  9.5278810e-05
 -2.4370692e-04
 -6.7632565e-05
 -4.4557653e-04
 -1.1435307e-04
  2.5693673e-05
  3.5201496e-04
 -9.3988806e-04
 -2.1609248e-04
 -1.9530543e-04
  4.4151250e-04
  5.3305346e-05
  4.5581159e-04
 -1.8501155e-04
 -2.3286123e-04
 -1.8506867e-04
 -7.3642150e-04
  2.5832589e-04
 -3.9469925e-04
 -3.9575653e-04
 -6.1141851e-04
 -3.2586430e-04
 -2.9567714e-04
 -3.8986455e-04
 -1.5085005e-05
  8.6234452e-04
 -2.1724083e-04
  3.7811085e-04
  6.0761557e-04
 -1.7346899e-04
  3.5919814e-04
 -7.9068079e-05
 -2.2131974e-04
  3.6447830e-04
 -4.7651451e-04
 -3.2390375e-04
 -8.4657455e-04
  5.5791321e-04
 -1.4907013e-04
 -4.1806855e-04
 -5.9122551e-04
 -3.1200837e-04
  3.9921462e-04
 -9.6319898e-05
  4.1028548e-02
  5.1948056e-04
 -2.7218336e-04
 -1.0100356e-04
  4.2718867e-04
 -5.0704001e-04
  4.8905436e-04
  8.4690377e-03
  5.2684970e-04
  9.9630370e-06
  1.0826865e-04
  1.0755938e-04
  3.7269000e-04
  1.2410110e-05
  7.5367818e-05
 -1.0906492e-04
  6.6255685e-04
  5.2049450e-05
  2.8825927e-04
 -4.9416110e-04
 -1.9295607e-03
  2.7652329e-04
 -2.1769537e-03
 -1.9061475e-04
 -5.4107935e-05
  4.3035248e-05
  3.8291496e-04
  7.3154422e-04
 -8.2020990e-05
 -2.1257423e-05
  1.2651314e-04
  3.4821033e-04
 -1.0523776e-04
 -1.6191002e-03
  1.3016771e-04
 -2.6191212e-04
  1.7984926e-04
 -1.0649232e-03
 -1.8306832e-04
 -1.4441121e-04
  2.3161339e-04
 -3.0442821e-05
 -5.4279104e-04
 -4.7253454e-04
 -5.1378628e-04
 -6.5545621e-04
 -2.3490655e-04
  8.2928844e-04
  4.0715051e-04
  2.3498754e-04
  2.7508515e-05
  1.0952671e-04
  9.0354733e-04
 -1.8891999e-03
 -3.5327935e-04
  4.0615708e-04
  1.7911003e-03
  2.6821683e-04
  2.0829438e-04
  3.4978910e-04
 -4.5219110e-04
  8.0935901e-04
 -3.0388913e-04
 -2.8056004e+00
  5.1975030e-01
  2.9156532e+00
  3.8257197e-01
 -3.1646988e-01
  1.0385498e-01
 -1.8528657e+00
 -4.6573133e+00
 -3.2594767e-01
 -7.4779940e-01
  2.9914635e-03
 -3.5477545e-02
  2.1101024e-02
  4.5117037e-03
 -2.7346605e-04
 -3.9391321e-01
 -3.8185489e-01
 -1.5212451e-01
 -1.3664149e+00
 -2.1383649e-01
  6.6055536e-01
 -4.7397649e-01
  4.0232701e+00
  1.3470592e+00
  2.0338682e-02
 -1.4650275e+00
 -1.0266500e+00
 -4.5403346e-02
  4.0671304e-02
  8.3360314e-01
  5.4069002e-05
  4.3388139e-04
  1.7631257e-02
  1.6419755e-03
 -5.1468861e-01
  1.6814594e-01
  5.4250944e-01
 -5.5213092e-04
 -8.4873312e-04
 -5.2626652e-01
 -3.5320554e-02
 -5.5787846e-04
 -5.2852940e-04
  3.9777458e-01
 -2.1412299e+00
  3.8247812e-01
  5.6507514e-04
 -1.5221764e-03
  3.8579217e-01
  9.8842266e-04
  6.6721761e-05
 -7.6978520e-04
 -8.2006259e-04
  8.6627912e-04
  9.8363182e-04
 -3.1103732e-04
  3.7240799e-04
  2.1972746e-04
  4.2953666e-06
 -3.6870269e-04
 -5.4335356e-04
  2.0294269e-03
 -3.9909839e-05
 -5.5915678e-01
 -4.3207458e-01
 -1.0049276e-03
  1.9825601e-04
 -2.7437581e-04
 -1.3402140e-01
 -3.2894698e-04
  3.1304621e-04
 -5.9373368e-04
 -3.2548196e-04
 -5.2225572e-04
  7.7063014e-04
 -3.4909499e-05
 -4.7246806e-04
 -5.8825040e-04
 -7.6561514e-04
 -9.7312812e-05
  9.5244477e-06
  1.8746238e-04
  6.4334017e-05
  6.1703450e-04
  3.8981383e-05
 -2.4046836e-04
  2.8647702e-05
 -4.8518312e-04
  9.6508862e-05
 -6.2879641e-05
 -1.8942631e-04
 -8.3256187e-04
  9.4620220e-04
  4.8232215e-04
 -1.5572770e-04
  6.0292397e-04
  4.1678725e-04
 -3.5627672e-04
  1.0055564e-03
  1.7311575e-03
 -2.6582091e-04
 -1.7461757e-04
  3.5542147e-05
  5.4451328e-04
 -1.2472016e-04
  6.8448964e-05
 -6.7075314e-05
  6.4672867e-04
 -5.1588763e-04
 -2.2050382e-04
 -6.1212463e-04
  1.8891113e-04
  6.5798173e-04
 -4.9368158e-05
 -4.6001887e-04
  3.7375350e-05
 -4.1024684e-04
  1.8026028e-04
  2.5214339e-04
  1.1832739e-03
  7.7809855e-05
  5.3196860e-04
 -4.8845186e-04
 -1.5686487e-04
 -5.1825232e-04
 -4.4852114e-04
 -4.7746873e-01
  7.2954594e-05
 -1.3837566e-04
 -3.7823725e-04
 -4.5139884e-04
 -6.0362206e-04
  2.2718355e-03
 -8.6467575e-05
 -1.1604427e-03
  1.4954963e-03
  7.2285759e-05
 -2.5966857e-04
  1.0108090e-03
 -1.4220063e-03
 -3.7930138e-05
 -3.1307038e-05
  3.6504678e-04
  5.0369210e-05
 -5.4649997e-04
  1.0096856e-03
 -3.0883990e-04
  2.2689167e-04
  2.5947609e-05
  1.1338788e-03
 -7.9397680e-05
  2.0842211e-04
 -5.0713692e-04
 -1.0512428e-03
 -4.3840153e-04
  3.7312541e-06
 -1.9930564e-04
 -6.6058087e-04
  1.1258993e-03
 -4.3575926e-04
  4.0150245e-04
  1.0478554e-04
  1.0880197e-03
  2.1922651e-04
 -2.0228339e-04
 -3.1774110e-04
  5.5171293e-04
 -3.0609276e-04
  2.5584924e-04
  2.9771318e-04
  7.3793397e-04
 -1.3193848e-04
  2.3270970e-04
 -3.2765567e-04
 -1.0340569e-03
  9.5854026e-05
 -7.7201735e-04
  1.3744025e-04
 -3.7949791e-04
 -4.1513861e-04
 -5.9999176e-04
  2.1265092e-04
  2.6110504e-04
  8.9870411e-04
  3.6196501e-04
 -5.2028889e-04
  5.1741651e-04
 -1.0487234e-04
  1.7345535e-04
 -1.0909541e-01
 -4.1504580e-01
 -5.4822827e-04
 -1.8453803e-03
  7.0639892e-04
 -2.9612504e-04
  7.4617885e-04
  4.5963706e-04
 -1.6338363e-03
  8.2534319e-04
  6.2622811e-04
  3.0734413e-04
  6.4253074e-04
 -1.0068683e-04
  1.5490758e-04
  4.4770323e-04
 -1.6329333e-04
 -3.9533485e-04
  6.7198096e-04
  9.4878575e-04
 -4.7011988e-04
 -1.2254265e-04
  1.0228854e-03
  1.0210947e-03
 -5.1225693e-04
  1.9797904e-03
 -2.8198046e-04
 -7.0955534e-04
  3.5934510e-05
 -9.2636404e-04
 -6.2311250e-05
 -1.3689054e-03
 -1.3662709e-03
 -3.2829054e-04
  1.5282601e-05
 -8.6239603e-04
 -5.1424886e-05
  6.9906295e-04
 -1.9018436e-05
 -1.8775185e-04
 -6.5033510e-04
  7.3675375e-04
  3.5432021e-03
  2.7626479e-04
 -5.2162673e-04
  4.1107784e-04
 -1.7868188e-04
 -1.3268234e-04
 -2.8057303e-04
  9.3225337e-04
 -8.8808738e-04
 -3.3451917e-04
  1.9175975e-04
 -7.6484801e-05
  5.3102436e-04
  4.7094902e-04
 -2.4771120e-04
  9.9378626e-04
 -9.5703063e-04
  6.7560570e-05
  1.2360017e-04
  1.7635006e-03
  6.2950474e-04
  1.9392631e+00
  1.4724866e+00
  2.3591657e+00
 -1.2456001e+00
 -9.7276038e-01
 -3.2606274e-01
  1.9650452e+00
  2.8039808e+00
 -3.1155772e+00
 -2.9014251e-01
  4.2246872e-01
  1.6134614e+00
  2.8965028e-02
  3.3058918e+00
 -2.9859596e-01
 -7.1975123e-04
  1.0321853e+00
  6.7004114e-01
 -1.0324743e-01
  7.8966522e-01
  6.2490231e-01
 -6.4541394e-01
  7.6486480e-01
  3.4982982e+00
 -2.0111967e-02
 -1.0555006e+00
  1.0360604e-01
  1.1289589e+00
  1.2402557e+00
  6.9255973e-03
  5.4754370e-01
 -1.6973644e+00
 -4.9460877e-04
 -4.6263528e-01
 -8.1994545e-01
  2.1381996e+00
 -1.2419703e+00
  6.8654405e-04
 -6.6025723e-03
  9.8829925e-02
  1.7975797e-01
 -8.8706774e-01
 -1.6793823e-01
 -2.2492407e-01
  9.0906203e-01
 -1.5772645e-04
 -7.8266822e-03
  1.6922735e-01
 -2.0134132e-01
 -1.6570644e+00
  5.0107354e-01
  3.2849601e-04
 -6.5555186e-03
 -3.3662873e-04
  9.6353021e-04
 -1.8385076e-04
  2.6087859e-03
 -9.2003960e-03
 -3.1491392e-04
 -9.3577917e-05
  3.8254610e-04
 -9.3157316e-05
 -1.1196065e-03
  1.6398156e+00
 -9.1204035e-01
  6.5646511e-01
 -4.8300016e-01
  1.0782446e-03
  7.8899711e-01
  5.2640653e-01
  4.8028296e-03
 -2.2283885e-04
  2.9363466e-04
  4.9395539e-04
  2.3700385e-03
 -4.9414003e-04
  2.5919127e-01
  2.5310786e-04
 -5.4985805e-05
 -1.6396665e-05
 -1.4543424e+00
 -9.3038991e-02
 -1.4130723e-01
  2.7092096e-01
 -9.2188665e-04
  3.0675175e+00
 -2.8271480e+00
 -5.6673067e-05
 -1.4320830e+00
 -1.3371859e-01
 -2.7224736e-04
  5.7719887e-04
  4.3860779e-04
 -2.0772968e-04
 -1.0625594e-01
  5.5189827e-05
  2.1297390e-04
 -1.7171028e-03
 -1.1852430e-03
  8.1635604e-05
 -2.9003939e-01
 -5.7023573e-03
  4.6524958e-04
  7.4163133e-01
  3.2862887e-01
  2.6573858e-01
 -1.5410425e-01
  5.4078507e+00
  5.1453518e-04
 -4.3237038e-04
 -4.7922953e-05
  3.7848640e-02
  1.4430307e+00
 -1.6225806e-04
  8.9158471e-05
  3.5901790e-04
  2.5544779e-03
 -2.7320030e-04
  7.8845223e-05
 -5.3850166e-04
 -9.0542686e-04
 -6.9061040e-05
 -4.6286226e-05
 -9.4263094e-05
  2.4901409e-04
 -8.6908673e-05
  5.4791939e-01
 -1.0498469e+00
 -1.5687599e-05
  5.5334872e-01
  1.1045045e-04
 -1.3973066e-03
 -3.7956583e+00
 -8.3171082e-01
  1.6675742e+00
  1.0361909e-04
 -1.8079257e-04
  2.0922953e-04
 -1.6896911e-04
  3.5496720e-04
 -1.9677558e-04
  9.7674504e-04
  3.7795122e-04
  4.2676241e-03
 -6.7650632e-04
 -2.7802713e-02
 -5.5153249e-04
 -1.1823036e-04
  4.9114239e-04
 -1.6364316e-03
 -5.3040771e-05
 -2.8107132e-04
 -1.4033733e-03
  3.1398118e-05
  1.1622335e-03
  7.7613391e-04
 -5.6090914e-05
  2.7974651e-04
 -6.2321482e-04
 -6.1717496e-04
 -1.5330134e-02
 -2.0118205e-04
 -7.1959317e-01
 -2.8480729e-01
  2.2827981e-04
 -9.4995741e-04
 -2.0263383e-04
 -1.2180269e-03
 -3.9203626e-01
 -2.0736507e-03
 -5.3222382e-01
  8.0343499e-04
 -4.7855858e-05
  2.4640679e-04
  1.3101179e-03
  4.3975431e-04
  1.0001707e-04
 -3.0933654e-05
 -5.5569992e-04
  3.7484325e-04
 -1.6811469e-03
  1.7649123e-04
 -9.7704923e-04
 -1.4833562e-04
  9.7356940e-04
 -5.1560666e-04
  1.7510819e-03
 -9.8744151e-04
  5.5035675e-04
 -4.0916225e-01
  7.7173375e-02
 -1.3890237e-04
 -9.4023722e-05
 -2.2339140e-04
 -3.5919322e-04
  1.7197071e-04
  4.2360916e-04
  7.8471273e-04
  8.8492598e-05
  8.9614501e-04
 -6.6709076e-04
 -3.2702072e-05
  3.6889760e-05
 -1.4202112e-03
 -3.0579168e-04
 -3.1520112e-04
 -1.3711381e-04
  2.2986408e-04
  1.3121143e-04
  2.7754335e-04
  1.9701099e-04
 -1.5311388e-04
 -2.1265676e-06
  1.8790315e-04
 -7.0148715e-05
  1.7462583e-04
 -1.7829328e-04
 -9.9224562e-05
  1.2960985e-03
 -4.5702304e-04
  7.3413503e-05
  2.4136240e-04
  3.8781567e-04
  1.1429522e-04
  3.4544256e-04
  7.0390699e-04
  2.8903139e-04
  1.2411949e-03
  4.0581694e-05
 -1.0801017e-03
  7.6575830e-05
  2.1931492e-03
  6.4445293e-04
 -9.5711872e-02
  1.1950296e-04
  1.4009563e-03
  4.1500275e-04
 -1.5627218e-05
  2.8480312e-05
 -6.0971826e-04
 -3.9331040e-05
  3.2852369e-04
 -8.3089353e-06
  1.8418329e-04
 -2.3549031e-04
 -1.5429268e-03
 -3.2382111e-05
 -2.8308592e-04
 -2.1169560e-04
 -6.4045837e-04
 -6.5228122e-01
 -1.5298033e-04
  3.7255189e+00
 -2.1695173e+00
  3.2880003e+00
  8.9548415e-01
 -2.0330458e+00
  1.0901911e+00
  2.5744081e+00
 -4.3915996e-01
 -1.7360041e+00
 -3.5347040e+00
 -1.6201706e-01
 -3.0429566e-01
 -9.9660474e-01
 -1.2695810e+00
 -1.2896969e+00
 -1.9562870e+00
  1.5665493e+00
 -1.3618872e+00
 -2.9861283e-01
 -1.3656177e-01
 -1.1158168e-01
  2.7831092e-01
  1.3492426e+00
  2.8062105e-01
 -8.8046159e-05
  1.0547839e+00
  9.7797310e-01
 -1.5568355e+00
  2.8729515e+00
  2.3418388e-01
 -1.0906787e+00
 -7.1529585e-01
 -1.8944498e+00
 -1.4855597e+00
  1.1827303e+00
 -2.7193565e+00
 -2.8538296e-01
 -4.6767902e-01
  1.0390555e+00
  1.8526039e+00
 -1.8484402e-01
 -2.1321727e-03
 -1.7941692e+00
 -1.1673688e+00
 -1.9352128e-01
  9.5865585e-02
 -3.6100781e-04
  1.4910144e-03
  3.0296519e-01
 -1.8910816e+00
 -2.3625984e-03
 -1.0605434e-01
 -4.2717776e-01
 -3.1432632e-04
  1.2541012e-04
  7.9247642e-05
  7.4129857e-05
  7.5443210e-03
  1.5022067e-03
 -2.5825304e-04
 -6.8494002e-04
  6.0365992e-03
 -4.9686529e-05
  2.0005454e-01
  1.7547315e-04
  4.9858980e-05
  1.6283309e-04
  1.9313424e-04
 -7.2495820e-04
 -4.8591057e-05
 -9.2004729e-04
  1.5459134e-03
 -3.4358687e-04
 -4.2305779e-05
 -3.8370222e-06
  2.6711341e-04
  1.9059535e-03
 -1.5746255e-04
  1.3573452e-05
  6.4630251e-05
  1.4326842e-04
  4.0105378e-04
  3.5479473e-04
 -1.8973174e-04
 -2.9987615e-04
 -3.0634453e-04
  6.8978901e-05
 -1.2927792e-03
 -7.6572777e-04
 -2.6391403e-05
 -8.4926526e-04
  6.6844432e-04
 -4.9116404e-04
  9.7958531e-05
  1.4111619e-04
  3.8848523e-04
  8.6196800e-05
  1.2986384e-04
 -4.0941566e-05
 -3.2636090e-04
 -1.2796874e-03
 -4.4723335e-04
 -2.0149456e-04
  2.8547607e-04
 -5.7677203e-04
 -2.7114660e-03
 -2.3564417e-04
  6.4142951e-05
 -3.9362261e-04
  2.9119069e-04
 -1.9692697e-04
 -2.3132314e-04
 -4.6012504e-04
  1.1675105e-03
 -4.6123515e-04
  2.7888123e-04
 -1.1581368e-03
  2.0247416e-04
 -3.1778884e-05
 -8.1255607e-04
  3.4101671e-05
  3.4351845e-04
 -1.0479020e-04
  1.4193257e-03
  7.1431545e-04
 -4.9081334e-04
 -1.4700775e+00
  4.9122786e-03
 -1.3107440e-03
 -4.7732127e-04
 -1.6893055e-04
 -4.1930747e-04
  4.9860298e-04
  1.3214244e-02
  3.5335030e-05
  2.3643925e-05
  4.0906925e-05
 -1.2193169e-07
 -9.6486263e-05
 -8.1135231e-01
  4.4437218e-04
 -1.2573613e-04
  9.5179263e-07
 -1.7557971e-03
  1.1628214e-04
  2.3677308e-04
  1.6760723e-01
  3.4758661e-05
 -4.7968915e-03
  1.0021630e-04
 -1.3756705e-03
 -1.8799333e-03
 -1.7196378e-03
 -2.3502922e-04
 -6.8923627e-04
  3.7618284e-04
  5.2585406e-04
 -1.6012883e+00
 -9.2965329e-06
 -1.2500837e-04
  2.1246402e-04
  5.0711166e-04
 -1.1334588e-04
  5.8609486e-04
 -3.3357504e-04
  3.2536316e-04
  1.0922136e-04
  4.9656490e-04
  2.6287757e-05
 -1.8684156e-04
  1.2732812e-04
 -9.7985685e-06
 -4.2195959e-04
  3.6960091e-06
  1.3499896e-04
 -5.7663924e-01
  2.8849626e-03
  4.8621220e-04
 -1.0169994e-03
  1.2279916e-04
 -1.3033408e-04
 -8.4221165e-04
 -4.0869531e-04
 -3.4531011e-04
 -1.0813095e-04
  1.2476416e-04
  3.9092096e-04
 -6.5190956e-04
 -3.1012954e-05
 -2.6315448e-01
 -5.9798068e-01
 -1.9888113e+00
 -3.3770189e+00
  2.6560526e+00
  1.8638422e+00
 -4.3333035e+00
 -4.4039936e+00
 -3.0203447e+00
  1.8587346e-01
 -8.9250542e-02
 -3.1934774e-01
 -5.8822662e-01
 -1.0982184e+00
 -3.1973810e+00
 -1.5461859e+00
  1.2264462e+00
  7.7158666e-01
 -2.6861548e-02
  1.8917999e-01
 -1.5134196e-01
  2.3327538e-01
  8.1192499e-01
  1.5168161e+00
 -2.5346920e-01
 -1.1984138e+00
  1.2101766e+00
 -5.5713552e-01
 -2.4040308e+00
 -8.4294313e-01
  1.6319181e-01
 -1.2525773e+00
  3.1229171e-01
  4.6154338e-01
  7.3501402e-01
  8.3798039e-01
 -1.4303776e+00
  2.6480377e-01
  4.0331480e-01
 -4.0812653e-01
  1.7891599e+00
 -8.8519573e-01
  9.9803209e-01
 -2.2699761e+00
  5.9462267e-01
  4.3834552e-01
  8.3783007e-04
  1.6539617e-04
 -1.8839251e-02
 -4.8694350e-02
 -6.0346776e-01
 -6.3957220e-01
  5.0324068e-04
  2.9554797e-02
  2.0900278e-04
  7.9604815e-04
  5.2834023e-04
  2.7138458e-03
 -5.5973412e-04
  7.1326408e-06
 -4.6229307e-03
  5.4465485e-01
  1.7170440e-01
  2.8093532e-01
  4.7473735e-01
 -1.0235293e-03
 -3.4675031e-04
 -4.7635051e-04
  1.3631285e-04
  1.5616921e-01
  8.7138666e-05
 -4.9419253e-04
  2.2477137e-03
 -2.9872407e-04
 -8.8857586e-04
  3.0748642e-04
 -7.4082118e-04
 -2.4460605e-04
  4.2797979e-05
  1.5638199e-03
 -2.7976368e-05
 -8.1162783e-04
  5.7567918e-04
 -7.1190821e-05
  1.6161171e-04
 -2.9770517e-01
  6.7448494e-04
  1.7295282e-04
  4.9213006e-04
 -6.7471636e-05
  2.4353696e-05
 -5.3194701e-04
 -5.6539317e-05
  1.5588583e-04
  5.4273708e-04
  4.8038241e-04
 -2.5475278e-04
  1.9174015e-06
  1.7682796e-04
  3.7671243e-06
 -7.4113708e-04
  1.2198225e-04
  2.4278225e-04
  2.7396021e-04
 -2.5384038e-04
  5.4192686e-05
 -7.0783228e-04
 -3.7297134e-05
 -3.8521469e-04
  9.9918223e-04
 -1.5288989e-04
 -4.9296598e-04
 -6.9477341e-05
 -1.0882970e-03
 -3.5689384e-04
 -1.1842333e-04
  8.0255217e-05
 -1.8595414e-04
 -1.3278337e-04
  1.5134857e-03
  4.9486844e-04
 -1.5590925e-04
  1.8294080e-04
  2.6157244e-05
 -6.9548399e-04
 -1.3182600e-04
 -3.4055489e-04
 -1.6618758e-03
  3.3508186e-04
 -5.3501991e-04
  2.5171979e-04
  3.6522796e-04
 -4.8146269e-04
  5.1300565e-04
  2.3220326e-03
 -7.2601205e-04
 -2.0147774e-03
 -1.7695789e-03
  3.5770764e-04
 -7.9310994e-04
 -2.3645618e-04
  4.4076305e-04
 -3.2393666e-04
  1.1258845e-04
  3.8686945e-04
  4.2158284e-04
 -6.5756998e-05
 -6.7871384e-04
 -6.9975469e-04
  2.1292272e-03
  3.6502536e-04
  3.1935071e-04
 -1.7925447e-03
 -3.0218068e-04
 -1.3107734e-03
 -8.7253129e-06
 -2.5169720e-04
  2.8824009e-04
 -8.8663728e-05
  5.7188619e-04
 -3.9319080e-04
 -7.3225022e-04
  1.0418710e-03
 -5.5592001e-04
 -2.2143654e-04
 -6.1549310e-04
 -6.0510333e-04
 -5.2422698e-04
 -3.1364578e-04
  9.9414436e-05
 -5.3760796e-05
  2.4315603e-04
 -2.3317700e-05
  2.8366793e-04
  4.8892151e-05
  6.1265790e-05
 -3.9333664e-04
 -4.9922784e-04
  4.9689069e-04
 -3.3143995e-05
 -1.3801864e-03
 -3.3841369e-04
  4.7886913e-04
 -3.6890083e-04
  5.1727099e-04
  1.0932473e-04
  3.6470188e-05
  3.9940485e-04
  2.4003080e-05
 -1.0643588e+00
  4.8029059e-01
 -2.6455226e+00
 -1.7075889e-01
 -2.0839155e+00
 -7.0073599e-01
 -3.4973284e-04
 -1.2976124e+00
 -2.1258759e+00
  1.6031915e-01
 -1.8572515e-04
  2.6543939e-04
  8.3346240e-04
  1.1259376e+00
 -9.1272406e-02
  4.6289708e-02
  1.0128486e-01
  4.3202168e-04
  1.3424702e-01
  3.5636704e-02
 -1.9871362e-01
 -1.8589085e+00
 -1.5569198e-01
  1.6580836e+00
 -1.8243106e-04
  6.8595959e-03
 -1.7460115e-01
 -1.1782170e-02
  8.8468660e-03
 -1.4093457e-03
 -7.4444606e-04
 -6.9903713e-01
  3.5442426e-04
 -4.8488405e-01
  9.6390165e-02
  4.1274149e-03
 -5.6546068e-01
 -3.8770001e-02
 -1.2721585e+00
  4.1365859e-04
 -6.3231713e-01
 -3.5734876e-04
  1.3548331e+00
 -1.2055213e+00
 -1.9058626e+00
 -7.2932664e-05
  5.8151654e-04
 -8.7675604e-04
 -1.3182429e-03
  1.4453985e-01
 -4.8263511e-01
  6.8591774e-04
  4.5039365e-04
 -2.1012549e-04
  6.5621181e-04
  1.4091931e-04
 -1.5276484e-04
  7.8374695e-04
 -1.3105564e-03
  1.2046112e-03
 -7.0676120e-04
  9.4221003e-04
  1.8007833e-03
  1.4551827e+00
  5.1871401e-01
  2.4614882e-01
  4.3502122e-01
 -3.0192811e+00
 -6.4660027e-03
 -4.9763778e-01
 -5.3614074e-01
 -3.2484996e-01
 -2.3566559e-01
  5.6581217e-04
 -3.6008435e-01
 -5.9931105e-01
  9.7080573e-02
 -2.4234030e-01
  4.6005633e-01
 -5.9708667e-01
  2.2952724e-01
 -5.2559277e-04
 -1.2270763e-03
 -3.4629235e-01
 -8.5491681e-01
  1.2650809e+00
 -1.3165997e-04
  2.1889384e-01
 -1.7816643e+00
 -1.5291777e+00
 -9.2928625e-05
  5.7881367e-01
 -5.5420096e-04
  5.7052262e-04
  1.7586099e+00
  6.7211298e-04
  5.3244114e-01
  1.4268591e-02
  1.4030666e+00
 -1.3672130e+00
 -9.4518858e-01
  3.8786915e-01
 -2.8716260e-01
  7.8378201e-01
 -2.5835745e-03
  8.4640938e-01
  3.1247470e-01
 -3.0555160e+00
 -3.7448344e-04
  2.0828705e-04
  6.9980230e-04
  5.3722475e-02
 -4.7645110e-04
 -1.7420801e-03
  7.4541231e-04
 -2.5726613e-04
 -2.1452403e-05
 -1.4473542e-04
  2.5758831e-04
  8.3792210e-04
  1.1635725e-04
 -6.2984327e-04
  2.9874837e-04
  4.3968254e-04
  1.1451883e-03
  1.9176202e-03
 -7.3540074e-01
  3.5255797e+00
  2.4974446e-01
 -2.8650431e-02
 -2.8529570e+00
  1.7519338e-02
  2.1169226e-01
 -1.7632741e+00
  2.6557283e+00
  9.0210758e-02
  4.8391528e-02
 -1.3834767e-01
 -2.4732642e+00
 -1.2944784e+00
 -1.4157308e-04
 -1.5473158e+00
 -3.0556551e-01
 -1.6369708e+00
 -1.8464807e+00
  1.5478625e-04
  9.3211219e-02
 -1.0536793e+00
 -1.3707497e+00
  3.0006611e-04
 -2.2195727e-01
  1.0050381e+00
 -3.1688377e-02
  1.5849972e-01
  1.0157442e+00
  6.0798985e-01
  5.0645894e-01
 -9.7425783e-01
  4.1600345e-03
 -5.6779516e-01
 -6.7808396e-01
  8.2800142e-02
  1.9075793e+00
  2.9019815e-01
  1.0061649e-01
  8.0617934e-01
 -4.8143908e-01
 -9.1036570e-01
  1.9442120e+00
  3.8922276e+00
  1.2408196e+00
  2.0654194e-05
 -8.9135987e-04
  3.2102247e-04
  2.2135551e-04
 -2.0353113e-04
 -4.7336816e-04
 -6.2023860e-04
  8.7714609e-04
 -2.5786992e-04
 -1.1157616e-05
  3.5731413e-05
 -3.8309846e-04
  6.2934583e-04
  1.1815904e-03
 -4.5104115e-04
 -2.3866090e-04
  3.8885360e-04
  9.5969270e-04
  9.7028288e-04
 -2.5180055e-04
  7.8345933e-05
 -8.1306825e-05
  1.0984948e-04
  1.7815831e-04
 -3.1946681e-04
  4.1710795e-04
 -1.2089103e-04
 -4.2608689e-04
  3.1781476e-04
 -2.1932357e-04
 -3.8656025e-04
 -1.1867564e-03
 -2.6361991e-04
  1.0259160e-03
 -5.0606392e-04
 -1.8592428e-03
  1.3838136e-03
 -8.3097530e-04
  1.8318968e-04
  1.8129691e-05
  1.5388042e-04
 -8.5907690e-05
 -1.4261555e-04
  9.4308599e-04
  1.3844320e-03
  3.0930646e-04
  1.9161968e-04
 -1.0415621e-03
  3.4879136e-04
 -3.3967888e-05
  8.6654945e-05
 -1.6345037e-04
  5.7065809e-05
 -1.1463624e-04
  1.3904338e-03
 -2.4700114e-03
 -8.8317023e-04
 -1.2440484e+00
 -8.4743515e-04
 -1.5218071e-04
 -4.1522074e-04
 -2.7642920e-05
  7.6937162e-05
 -2.4256196e-04
 -2.1158483e-04
  2.5431811e-05
 -5.8789603e-05
  6.5356347e-04
 -2.0485475e-05
 -4.2479319e-04
 -9.0129202e-04
 -3.3428139e-04
  4.0316986e-04
 -1.1452921e-04
  1.8955677e-04
  4.1560023e-04
 -4.9613358e-04
 -5.9763450e-05
 -1.1995713e-03
 -3.8463841e-04
 -1.1683381e-03
 -5.6370747e-01
 -2.3376968e-04
  1.0746557e-04
  4.3056952e-03
  1.5970755e-04
 -3.1909619e-02
 -3.9933392e-01
 -6.4372492e-04
  2.0972886e-03
 -5.6540706e-05
  1.5458498e-04
 -2.0715158e-04
  5.7369861e-04
  1.2230416e-03
  6.9634298e-05
  1.5720134e-04
  1.5200677e-04
 -1.2154653e-04
  2.6628285e-04
 -1.2699262e-03
 -1.5703739e-04
 -1.8660200e-04
  1.0154027e+00
 -2.7037102e-03
  9.0386544e-05
 -5.1303383e-02
 -2.6556863e-05
  4.1285585e-04
 -3.4808679e-04
  1.7075297e-04
 -5.1265093e-04
 -2.1339205e-05
  5.3177349e-04
 -4.8460803e-05
 -2.4625676e-04
  2.5526242e-04
 -5.1542529e-04
 -9.4440149e-04
 -1.2199694e-04
 -2.3918916e-05
  1.7749889e-02
 -9.0969884e-04
 -2.1122382e-03
 -1.2787691e-04
 -7.1251676e-03
 -1.6713774e-04
 -6.6025299e-04
  3.0717449e-04
 -1.8722322e-04
 -2.1860041e-01
  2.7854115e-04
  3.5071389e-05
 -3.4005314e-04
  6.7783199e-05
  6.2553724e-04
 -1.9301828e-04
 -4.0661372e-04
 -8.9954730e-05
  8.2977189e-05
 -4.1746878e-04
  1.0617363e-04
  3.3787710e-05
  7.0841407e-04
  7.4787155e-02
 -9.0084663e-03
 -9.5084432e-04
 -5.4740822e-06
 -1.1723758e-04
 -1.1411297e-05
 -6.6122116e-04
  2.2411531e-04
 -1.4583078e-04
 -4.2809286e-05
 -1.4274514e-03
 -4.4179242e-04
 -1.9765894e-04
  3.9961046e-04
 -2.1323356e-04
 -7.4740191e-04
 -8.8924816e-04
 -1.0154076e-04
  3.1580657e-05
 -6.9631153e-04
  5.6680979e-04
  8.2129518e-05
  2.1070942e-05
 -2.8593795e-04
  7.6284900e-06
  3.4076333e-04
 -3.2367717e-04
 -8.7099317e-05
 -2.5636860e-04
 -8.9848945e-06
 -3.2925873e-05
  5.5679370e-04
  4.8974482e-04
  3.8502703e-04
 -1.5958291e-03
  7.7066416e-06
 -1.9979484e-04
 -9.5020782e-04
 -2.1535056e-04
 -1.8921377e-04
  1.0108799e-04
 -1.8648172e-04
  1.5368256e-04
  8.0436192e-05
  2.6077445e-04
 -1.1810110e-04
  4.2344359e-04
  4.2387098e-04
  3.0144968e-04
 -2.1872013e-04
  2.0445912e-04
  9.1277971e-04
 -2.5644916e-04
  7.3763360e-05
 -1.4030900e-04
  7.8124180e-04
  4.9239909e-05
 -1.4205530e-04
  5.7437006e-05
  5.6447438e-04
 -1.5893079e-04
 -3.9590575e-04
 -8.8309738e-05
  1.1479868e+00
 -6.3557243e-01
  3.2583699e-02
  3.4144729e-01
 -7.6743895e-01
 -1.1009990e+00
 -1.4530656e-01
 -5.2981693e-01
  7.1603739e-01
 -4.0105070e-04
  2.3232076e-04
 -1.8019900e-03
 -3.1086815e-06
 -6.6125625e-01
 -2.3812262e-04
  7.0419297e-02
 -2.6931055e-04
  1.6845776e-02
 -3.0020374e-01
  1.6732917e-04
 -7.6521782e-04
 -1.4201984e+00
 -9.0239692e-01
  1.5282112e-03
  7.5519204e-01
 -4.3495908e-02
  1.0026879e-04
 -3.0838934e-04
  8.5793674e-04
  8.5789914e-04
  6.7139702e-04
 -1.3015316e-01
 -2.9916863e-04
 -1.5518410e-04
  8.3393318e-04
  3.9089820e-01
 -1.7276478e-03
 -1.7311878e-03
 -4.2713378e-05
 -1.1673677e-03
  1.5141240e-01
  4.6569557e-04
  1.1588944e-04
 -1.4107992e-01
 -6.1140275e-01
  4.0074837e-04
  1.5742397e-03
  2.2599126e-04
 -6.7715329e-05
  2.7027958e-05
 -7.0942781e-04
 -1.8650204e-05
 -3.1486063e-05
 -2.1422542e-05
 -2.8584676e-04
 -3.8124272e-05
  4.3580956e-05
  1.5182096e-04
  1.3092582e-03
  8.1063464e-04
 -5.0842605e-04
  1.6802349e-03
  1.7000770e-03
  6.6039858e-05
 -5.4820965e-04
  2.6117972e-04
 -9.6827693e-04
 -7.9192355e-04
 -1.2084490e-03
  1.5331527e-04
  5.6231893e-05
  8.1558409e-04
  7.1295473e-04
 -9.4705739e-04
 -8.4338279e-04
 -3.7670322e-04
 -1.3897710e-05
 -9.5787365e-04
 -6.5822569e-05
  5.0421292e-04
 -4.3810008e-04
  7.4103737e-05
 -2.7963952e-05
  3.0655839e-04
 -8.4171991e-04
  7.8152615e-04
  7.1539276e-04
 -6.8650645e-04
 -6.8537967e-04
  6.1249244e-04
  8.0158912e-05
 -8.8938599e-05
 -1.9362419e-04
  2.7518711e-04
  1.0722827e-03
  1.6624223e-04
 -3.6285139e-05
  6.2377489e-04
  6.1179610e-04
 -6.2372896e-04
  1.1527522e-04
 -8.3658478e-04
  3.8782011e-05
  6.3159154e-04
 -3.9001421e-05
 -1.1098214e-03
 -3.6636161e-04
 -2.3932461e-04
 -1.8861298e-04
 -8.2037575e-04
  1.4336563e-03
  5.0720753e-04
  6.3129893e-04
 -2.4129472e-04
 -5.8620103e-04
  2.5094958e-04
 -6.7786917e-05
 -1.1504865e-04
  4.3660242e-05
  1.6229604e-04
 -1.4075290e-03
  2.3615595e-04
  7.2399169e-05
  6.4951088e-04
  9.2751303e-05
  2.3667110e-04
 -6.4784515e-01
  7.7598178e-01
 -5.0411600e-01
  6.3001597e-01
  1.0793915e+00
 -2.2224064e+00
 -3.9757743e-02
 -9.1005272e-01
 -1.0396032e+00
  2.7280954e-01
  6.0826200e-01
 -7.4913180e-01
 -8.0540240e-01
  1.2235658e+00
 -4.9566126e-01
 -9.5294662e-02
  2.7012274e-01
 -5.6245965e-01
  5.4265791e-01
  6.7143542e-01
  5.1398140e-01
  1.0695200e+00
  2.0123262e+00
 -2.5609003e-03
  1.6636093e+00
  5.1150113e-01
 -9.9311985e-02
  1.6663041e+00
 -1.2820432e+00
  1.7926943e-01
 -8.9386004e-01
  1.9448107e-01
 -2.7722099e-01
  1.7708440e+00
  1.5297606e+00
 -5.0199142e+00
 -3.5795030e-01
 -1.6467756e+00
 -3.0709522e-02
  1.1029316e+00
  1.3086510e+00
  5.5504787e-01
  5.6752425e-01
 -8.8920844e-01
  1.1362826e-01
  1.0783275e+00
  1.2336845e+00
  3.8102287e-05
  1.3891984e+00
 -1.0829610e-04
  1.9355009e-01
  8.4576843e-04
 -1.2549652e-02
  5.0130129e-05
  6.4923544e-04
  8.5407053e-05
 -1.6473968e-03
 -3.1952720e-02
 -3.7122268e-04
  3.5133309e-04
  4.8949313e-04
 -4.9578415e-05
 -5.9597462e-01
  3.6281392e-01
  2.6415725e+00
 -2.9189970e+00
  3.2571858e-01
 -1.1829860e-01
 -2.6160457e+00
  3.2166178e+00
  8.2139903e-01
 -1.6511099e+00
 -1.5747349e+00
  3.7063107e-01
 -1.4341618e+00
 -4.3434256e-01
 -4.6289614e-01
 -9.8580331e-01
  1.7106149e+00
 -1.3160100e+00
  1.1444269e+00
 -9.2883301e-01
  1.6794863e-01
  1.8853039e+00
 -2.2709806e+00
 -7.6805905e-02
 -1.0231647e+00
  1.3922042e+00
 -8.1562167e-01
  5.4408586e-01
 -8.6655194e-01
 -1.7142715e-03
 -1.2775426e+00
 -1.4554595e+00
 -1.6680517e+00
  1.3769853e+00
 -9.5901519e-01
 -4.1361251e-01
 -6.2803090e-01
  2.6720271e-01
 -4.7474257e-03
  5.5678952e-01
 -9.9575049e-01
  3.6660433e-01
  6.3355625e-01
 -6.3608778e-01
 -1.6503325e+00
  3.3828926e-01
 -8.3653152e-04
 -3.8534142e-03
 -2.0672759e-01
  1.0262004e-02
  9.9730454e-03
 -7.5176358e-01
 -9.0888957e-04
  1.3707576e-03
 -4.1898787e-03
  2.3989123e-04
  5.3635618e-04
 -2.0189329e-04
  2.6609136e-03
 -1.4634547e+00
 -1.8143586e-03
 -1.5938021e-03
 -8.0748071e-04
  8.6136404e-03
 -4.0512598e-01
 -2.5984749e-02
  7.9194146e-01
 -1.2882066e+00
 -2.0969117e-03
 -8.9946741e-01
 -7.2773173e-02
 -2.0136659e-01
 -4.5374393e-01
  1.1220564e+00
 -1.1085886e-01
  3.5379606e-01
 -1.3794497e-01
 -4.7003639e-01
  1.2045462e-02
 -6.4401212e-04
 -2.0171670e-02
  1.0561815e-01
  3.7593272e-01
 -7.6383674e-01
  2.8008881e-01
  3.5691626e+00
 -9.2054558e-01
  4.6563593e-01
 -1.6893613e+00
 -3.5344698e-02
  1.7519094e+00
  1.1021337e-01
  4.2725219e-03
  2.7635975e-03
  8.4038538e-01
 -1.6517694e+00
  2.2768717e-01
  1.7265996e+00
  1.0411692e+00
  4.0193920e+00
  3.8922718e-01
 -6.8281013e-01
 -1.7606615e-01
  3.7153965e-01
  1.0699127e+00
 -8.7667340e-03
 -1.3884473e+00
  2.6129248e-02
  2.1717760e-03
  7.3010748e-04
  1.5789999e-01
 -9.1686600e-01
 -6.7636572e-02
 -6.3283765e-03
 -4.7287732e-01
  1.8022720e-03
 -1.6236004e-04
  7.1756513e-04
  2.1934604e-04
  5.8636663e-04
 -3.3235829e-05
  1.5910121e-04
 -7.2005547e-05
  1.6772562e-04
 -2.0602664e-03
 -3.8848157e-04
  2.3493954e-04
 -2.8074571e-01
 -2.0004036e+00
  1.3266131e+00
  4.0645039e-01
  4.1032524e+00
  1.1993697e+00
  3.7593625e+00
  4.3988118e+00
  1.2466367e+00
 -2.9305553e+00
  8.3179832e-01
  9.7499153e-04
 -1.1766924e-01
  1.7693472e+00
  1.1872090e-01
 -1.6369303e-01
 -3.5292585e-03
 -5.8358222e-01
 -3.1696763e+00
 -3.1141906e+00
  8.0894634e-02
 -3.4002025e+00
  8.5334486e-01
 -3.0497673e-01
  1.5697686e-01
  2.3194155e-01
 -1.7280257e-01
 -8.0625657e-03
 -1.0875436e-01
 -5.2679022e-04
 -9.6869109e-05
  6.3521492e-01
  1.2154701e-05
 -1.3985101e+00
 -8.4678811e-01
 -5.4667211e-01
  5.3042665e-02
 -8.5775596e-01
 -4.2757356e-01
 -2.1105024e-03
  2.3851521e+00
  8.5439640e-01
  1.4511237e+00
 -2.0059981e+00
 -1.0143328e+00
  4.5980286e-04
 -4.0845925e-04
 -1.5007739e-04
  6.0154202e-06
 -3.9760423e-01
  2.0060624e-01
  4.9698475e-04
 -2.0715958e-01
 -6.2862178e-04
  3.4539908e-04
 -3.9905112e-06
  1.3011702e-03
 -2.4931473e-04
  2.0062057e-03
  4.2148086e-04
  5.8597946e-03
 -4.4155010e-04
 -1.8641812e-03
 -1.7190032e+00
 -9.3147168e-03
  1.0245706e+00
  1.7785739e+00
 -1.0890226e+00
 -2.6708579e+00
  2.0070741e+00
 -1.6462307e+00
 -5.2383196e-01
  2.0435468e-04
 -9.0842885e-05
  4.4637749e-01
  5.9004474e-01
  9.9500930e-01
  1.1613417e-02
  3.3685596e+00
 -2.4658209e-04
  1.3036075e+00
 -3.4195343e-01
 -1.1745891e-01
  7.7641076e-01
 -3.4124306e-01
 -1.1739701e+00
 -7.7661526e-01
  8.6648518e-04
 -2.3720373e-01
  3.2250360e-01
  1.7557063e-04
  1.2736943e+00
  2.0603420e-01
  8.7422051e-04
  6.4921463e-01
  6.2407600e-03
  1.3482295e-03
  7.8522047e-04
 -8.4400519e-05
  3.5737155e-04
 -1.2221830e+00
 -1.6757919e+00
  3.7766969e-01
  2.7764428e-01
  4.4749299e-01
 -3.3262068e-01
  1.5524629e-02
  2.2585402e+00
 -1.3797871e-04
 -3.6142122e-03
  3.3092075e-03
  2.0628150e-04
 -7.4170858e-01
 -5.8812984e-05
  2.9244536e-04
  1.5368079e-03
  1.5159321e-01
 -6.6378852e-04
  7.9586863e-04
  1.1327498e-03
  2.4289823e-06
  3.0102945e-04
  1.4372195e-05
 -2.2892931e-05
  1.0792367e-04
  3.0632704e-04
  1.7866445e+00
 -1.5759228e+00
 -3.3834162e+00
 -1.0023584e+00
  7.5996089e-01
  4.2112648e-01
  3.6505061e-01
  1.2428682e+00
 -1.1962202e+00
  1.5916891e-03
  2.5320152e-04
  9.5287571e-04
 -9.3748009e-01
  8.7707752e-04
 -2.6243881e-03
 -1.6948170e-03
  4.0202962e-05
  4.3506274e-04
  1.5351569e-02
 -4.8975477e-01
  7.8104675e-01
  7.6897365e-01
  9.7340155e-01
  3.8450089e-04
 -9.5766865e-02
  1.1429685e-03
  1.0531172e+00
  8.4934710e-04
 -7.6816505e-01
 -2.3123424e-01
  1.4576319e-01
 -2.1884716e-01
 -2.5531100e-03
 -2.2435367e-04
 -3.6182132e-04
  2.0866853e-03
  3.5042784e-04
  9.4666794e-02
 -5.8120251e-01
 -1.0951893e+00
 -3.9475369e-01
  3.9186469e-01
 -3.1536415e-01
 -3.6643487e-01
 -3.8756713e-01
  1.0236688e-03
  1.0837245e-01
  7.4064759e-05
 -6.0915452e-01
  1.0525637e+00
 -1.8055196e-04
  4.0271712e-04
  1.4862437e-04
 -4.6876376e-04
  1.9801897e-05
 -1.2479245e-04
 -1.8477967e-05
  8.8338864e-05
 -1.4599175e-03
  9.2970248e-04
  9.4437420e-02
  8.6011976e-05
  6.9781719e-04
 -2.8214648e-02
  1.0727665e-01
 -7.0922010e-02
 -3.1678734e+00
 -8.5674727e-01
 -4.9089754e-01
  6.7077726e-02
  2.2263594e-01
  2.4875216e+00
 -1.7328111e+00
  9.4661140e-01
  1.0660734e+00
  2.4729091e-01
  1.3571780e+00
 -3.6697000e-02
  2.1527719e+00
  2.0579450e+00
  1.4448858e+00
 -1.2661866e+00
  4.2715627e-01
  1.2214341e+00
 -1.5261608e+00
 -1.8247563e+00
 -2.4908314e+00
  1.0103010e+00
  8.2994395e-01
  4.1175511e-01
  2.1494210e+00
 -1.0218668e+00
  8.6521709e-01
  3.9735267e-01
 -2.5749183e-01
  2.8802434e-01
  8.5955405e-01
  7.8679210e-01
 -1.0670415e+00
  5.7821709e-01
  4.1366929e-01
 -1.4776461e+00
  2.6016836e+00
 -1.0788294e+00
  3.0577526e+00
  2.6060718e-01
 -1.7450187e+00
 -4.2353475e-01
  3.7427852e-04
  1.2281585e-04
 -7.4291599e-01
 -4.1090192e-05
  2.7324812e-04
 -6.0800141e-01
 -3.8083383e-01
  8.1510522e-04
 -7.9981548e-01
 -8.9935696e-05
 -4.9132650e-04
 -1.7039583e-04
  7.0646566e-01
  2.9754653e-04
  7.6888796e-08
 -1.0667897e+00
 -3.9847991e-01
  4.7396350e-01
  9.1961193e-01
 -7.7627605e-01
 -5.3382027e-01
 -1.4596080e+00
 -6.0077983e-01
 -1.8972881e+00
  1.9773881e+00
 -4.1771815e-03
  5.0983256e-01
  3.7422225e-01
  8.2014417e-03
 -1.2898592e-03
 -1.0354679e+00
  2.1260194e-04
  1.3612745e-04
 -3.3715167e-04
  3.5588871e-06
  6.3557483e-02
 -4.6764752e-01
 -1.9855797e+00
  7.1218326e-03
  5.5384594e-01
 -7.8616399e-01
  1.1110295e+00
 -4.5719066e-01
  7.5195515e-01
  1.7907319e+00
 -3.2137160e-04
 -6.9896167e-05
 -2.8806755e-01
 -1.5037249e+00
 -1.6876090e+00
 -2.3044627e-03
 -4.3279815e-01
 -3.0749035e-04
 -1.6807036e+00
 -1.0841890e-02
  8.8967758e-01
  1.7468137e-01
 -2.4146359e+00
 -5.1441841e-02
 -1.5232707e-02
  2.2518628e+00
  1.6001056e-04
 -3.0559519e-01
 -4.4218105e-01
  7.3705142e-04
  6.2285381e-04
 -1.5306047e-01
  2.8477523e-01
  1.1467619e-03
 -1.4556691e-04
 -4.5888417e-04
 -5.7446313e-01
  1.5821461e-04
  9.1940619e-04
 -3.2234351e-05
  5.9938472e-04
 -2.8996539e-04
  4.1723441e-04
 -9.0111594e-04
  1.4141724e-04
  4.7692074e-04
 -1.0570322e+00
  1.9932914e+00
 -2.9593322e+00
  9.2501217e-01
 -1.2581369e-03
  2.1407051e+00
 -3.7176615e-01
 -2.3508854e-01
  2.0873095e-04
  1.1487269e-04
  9.1830676e-04
  1.9178317e-04
  4.8036737e-04
 -3.9961169e-04
  8.4312493e-04
  1.9271372e-04
  2.1800405e-04
  7.8447885e-04
  4.3043165e-05
 -3.6186237e-02
 -2.8772870e-02
  1.2419213e+00
  1.7079824e+00
  1.9679219e+00
  2.5665658e-04
 -3.1867724e-02
 -1.2781149e-04
  5.1969016e-04
  2.3559118e-03
  1.3107052e-03
 -8.6284976e-04
  6.2431209e-05
  4.2232627e-04
  2.4779995e-03
 -1.8787196e-04
  8.0905901e-04
 -9.4597764e-02
 -9.2036603e-04
 -4.0971941e-01
 -2.3770364e-01
  1.9192175e+00
 -6.8694493e-04
  3.8325500e-02
 -3.2204935e-01
  3.2290616e+00
  2.7912753e-04
 -8.4899375e-03
  2.8119856e-04
  4.6910569e-01
  5.0521051e-03
  8.8461355e-05
  8.3141972e-04
  8.7706539e-05
  6.7588468e-03
 -7.1445433e-04
  1.0775612e-03
 -6.0566165e-04
  1.3867128e-05
 -2.0701534e-04
  1.7527165e-03
 -1.5962990e-04
  4.0491618e-04
 -3.7167853e-04
  2.8158836e+00
 -1.6776533e-03
  6.4522880e-01
 -9.2937119e-02
  1.1628382e+00
  6.9358808e-01
 -5.4863601e+00
 -2.9622641e+00
  2.0697610e+00
  7.0637567e-03
  6.2132688e-07
 -4.4600177e-03
  3.4190256e-02
 -6.9933087e-01
 -2.0588555e-03
 -6.5454334e-01
 -1.1907222e+00
 -7.2772539e-01
 -1.9503140e-01
 -3.1902947e-02
  3.2434822e-04
 -1.2005580e-03
 -9.9429685e-01
 -4.0980119e-01
 -1.4660273e+00
  1.3446228e-02
 -2.0735898e+00
 -3.7257159e-05
 -2.4120700e-01
  5.6767423e-04
 -6.6289249e-05
  9.6971059e-01
 -7.5166024e-02
  1.0936995e+00
  1.3082772e+00
  2.1086051e+00
 -2.2042543e-01
 -1.0722533e-04
 -6.7636841e-03
  5.1915580e-01
  2.8440139e-01
 -1.7372247e-02
 -1.2748317e-01
  7.2373509e-01
 -1.3636259e+00
 -1.5272736e-04
  4.6349349e-04
  1.8825962e-05
 -7.1158196e-04
 -2.1731528e-04
 -1.8750182e-04
 -1.1053000e-04
  2.2166134e-03
  4.4456374e-06
 -1.1470467e-05
 -9.0376916e-04
  6.9736154e-05
 -3.1680550e-04
 -2.3302089e-03
 -9.3445851e-05
  6.1293744e-05
 -1.9363174e-04
  9.5754665e-05
 -1.7712581e+00
  9.4359863e-01
  2.3062925e+00
  1.1867545e+00
  3.5762691e+00
 -1.6568727e+00
 -4.1880774e-01
  2.5327103e-02
  1.3532079e+00
 -2.2710422e-01
 -9.8803103e-01
 -3.3297246e+00
  3.5402331e-01
 -1.3898400e+00
 -7.5970304e-01
  5.7593340e-01
  2.9462355e-01
 -5.3701196e-03
 -9.0200877e-01
 -7.9142466e-02
  6.3189489e-01
  1.9546807e+00
 -1.1210919e-03
  1.6667982e+00
  1.3657820e+00
  4.3012920e-01
 -1.5882821e-01
  3.2942557e-01
  1.4842117e+00
  1.8536892e+00
  1.8435689e+00
  3.6166182e-01
 -1.2986851e+00
  1.7737514e+00
  2.3071480e+00
  5.0728977e-01
 -1.1795388e+00
  9.6544361e-01
  2.2989948e+00
 -7.2501457e-01
  2.2941931e-01
 -1.0264090e+00
 -6.1514482e-02
  4.4769835e-02
  1.6799326e+00
  1.1552349e-04
 -9.2007860e-04
  1.5606340e-04
  8.0426228e-01
  1.3055894e+00
  2.6800085e-04
 -9.5958179e-01
  2.1431905e-01
  2.7766198e-01
 -3.0905871e-05
  2.1428885e-03
 -1.0547352e-03
  2.9537538e-01
 -9.8535966e-04
 -5.1793479e-04
 -6.6578561e-03
 -1.1365555e-04
  1.2609021e-01
  2.1937571e+00
 -6.1703384e-01
 -6.6628499e+00
 -1.5629376e+00
 -3.2323697e+00
 -3.6850173e+00
 -1.0219328e+00
 -5.0832272e+00
  1.0580009e+00
  1.1833931e+00
 -1.5186443e+00
 -1.4952692e-01
 -6.3867062e-01
 -2.5655253e+00
 -5.2209777e-01
 -9.4165480e-01
 -1.8943261e-01
 -8.9701164e-01
  1.2677027e+00
  2.1543338e+00
  4.1606060e-01
 -6.7198622e-01
 -5.1265603e-01
  3.0970436e-01
 -3.4203825e+00
 -1.9462498e-01
 -4.1300327e-01
  9.9590695e-01
  1.4508444e-01
 -6.7587584e-01
 -4.2611916e-04
  1.0308796e+00
 -2.2442976e-04
 -5.0806409e-01
  1.9637945e-01
  3.9986329e+00
 -2.1200310e-04
 -5.7091475e-01
 -1.4842922e-04
 -1.9128759e+00
  1.3053222e+00
 -7.8690730e-02
  1.6899565e-01
  9.3796146e-01
  1.0830703e+00
 -1.4189307e-01
 -2.7787541e-03
 -2.1281641e-03
 -5.2283920e-04
  1.4174801e+00
  4.5617038e-04
  1.0559238e+00
 -1.6865628e-03
 -5.0691104e-01
 -1.4110660e-04
  3.0117529e-04
  1.0973562e-03
 -4.7830711e-04
 -1.4174072e+00
 -4.7636218e-04
  5.2867661e-04
 -6.3670951e-01
 -4.0311675e-04
 -1.5811358e-01
 -1.6244765e-03
  4.1252316e-04
 -3.9202981e-02
 -1.7730574e-04
 -1.0750577e+00
  1.8466024e-01
  1.4836655e-02
 -2.0169044e-01
  2.9357431e+00
  1.1640629e+00
  9.7121543e-01
 -1.7747834e+00
 -2.1328781e+00
  2.2212208e-04
  9.7635866e-04
 -1.8599038e+00
  1.1368463e+00
  3.3945492e-01
  5.2051914e-01
 -2.8736845e-01
 -2.9454569e-04
  6.0595190e-05
  2.0736846e-04
  6.9759868e-02
  1.5776560e+00
 -1.6656928e+00
 -8.1749767e-01
  1.4265848e-04
  1.0831413e+00
  5.4188746e-01
 -8.7985933e-02
  3.8737997e-01
  7.9046789e-04
 -4.0157064e-04
  1.8608274e+00
  4.7295816e-02
 -6.7876978e-04
  2.9591042e-01
  3.0994946e-01
  5.3135794e-01
  3.8559215e+00
 -2.7518229e+00
 -7.4830455e-01
  3.4095040e-03
 -5.9489335e-05
  2.0139194e-01
 -1.0678357e+00
  1.1438353e-03
 -1.1450972e-04
  1.0809952e+00
  1.5229555e+00
 -1.5886416e+00
  1.8008491e-01
 -3.4915280e-01
 -1.9637724e-05
 -1.2172492e+00
 -9.0985167e-01
  1.4215289e+00
  1.6017517e-03
  1.5956938e-01
  3.2412988e-01
  6.1604559e-01
  1.2564217e-04
  1.9190180e+00
  6.8030512e-04
 -3.4253111e-01
  4.2487375e-04
 -1.0904142e+00
 -1.2659665e+00
  1.6398524e+00
 -4.7173160e-01
  2.2400875e+00
 -2.1464078e+00
  1.1674604e+00
 -2.4636202e+00
  2.9413271e+00
  8.2786340e-01
 -5.4948640e-01
  1.9610202e-01
 -4.9205115e-01
 -4.8786788e-03
 -2.3460160e-01
  5.6712461e-01
 -3.4963569e-04
 -9.7079623e-01
 -7.8259456e-01
 -1.0245510e+00
 -9.3753308e-01
  2.5836523e+00
  7.9378062e-01
  7.1455061e-01
 -8.6843175e-01
 -1.3598369e+00
 -9.1672054e-04
  2.2827600e-01
 -2.2439678e+00
 -2.7121837e+00
  1.6100603e-01
 -2.1802439e-01
 -3.7214401e-01
 -5.9680019e-02
 -2.6263512e-04
 -6.1132910e-04
 -1.8637368e-01
  1.6338036e+00
 -1.7697080e+00
  7.6533061e-01
 -8.5684843e-04
  5.8002806e-01
  1.0626154e+00
  1.0949925e+00
 -1.1656604e+00
  3.4971095e-03
 -1.1762743e-01
  8.3574665e-01
 -4.9445254e-01
 -3.0550012e-02
 -8.5678625e-01
  6.0786718e-01
  1.1504227e+00
  4.4903749e-01
 -1.5361553e+00
  3.3111113e-01
 -2.1767030e-03
  4.2997584e-02
 -5.7597286e-01
 -1.7088288e-01
 -1.3445276e-01
 -1.7786619e-01
  1.1059175e+00
  5.8332783e-01
  2.2839428e-01
 -1.0496387e-01
 -1.0215523e+00
  1.9728185e-01
  9.5930821e-01
 -1.9108706e+00
 -4.0028927e-01
 -4.8848341e-04
 -5.4660666e-01
 -6.1109984e-01
 -5.1942146e-01
  7.2010919e-03
  9.3734682e-01
  1.1357405e-01
 -2.8591257e-01
  4.6561047e-02
  3.0040436e+00
 -2.2023692e+00
 -1.6275216e+00
  5.1415050e-01
  1.0062761e+00
 -5.1943260e-01
 -2.0498993e+00
 -2.7585371e+00
  5.6657398e-01
  3.3637533e+00
 -1.7803183e+00
  2.0266840e+00
 -1.6619284e+01
 -2.4756811e+00
 -3.3723658e-01
 -7.1702057e-01
 -1.4363021e+00
 -2.3429599e+00
 -4.9671212e-01
 -1.2837687e+00
 -5.3197891e-01
 -6.3810861e-01
  1.1971897e+00
 -8.0218714e-01
 -1.4184728e+00
  1.2443591e+00
  3.0641289e+00
 -1.4290157e-01
 -9.0065515e-01
  6.4685172e-01
  1.2245731e+00
 -4.2381120e-01
 -5.1405048e-01
 -6.6916025e-01
  4.6126515e-01
  1.0850540e+00
 -1.7867479e-01
 -1.0388300e+00
  1.8601494e+00
  1.7315576e+00
 -8.9537156e-01
  9.0614974e-01
 -3.0670767e+00
 -1.6610079e-02
 -6.2499744e-01
 -7.1510151e-02
 -1.4725699e-01
  1.7847618e+00
  1.1355126e+00
  8.3983916e-01
  2.1381428e+00
 -2.6826811e-01
  2.6701045e-01
  4.1749007e-01
 -3.7538290e-01
 -1.7057190e+00
  3.1759864e-01
 -1.5992465e+00
  2.1748357e+00
  9.4249547e-01
 -8.3580899e-01
 -7.2672352e-02
 -9.4936574e-01
  2.3916504e+00
 -1.3901551e+00
 -3.2867065e-01
 -1.0244377e+00
  1.5228144e+00
 -1.8297555e-02
 -1.3249812e-01
  1.7333103e+00
 -1.1830536e+00
 -1.8813679e-01
 -4.4213969e-01
 -1.0210432e+00
 -7.2020131e-01
  1.3178482e+00
  2.2602684e+00
 -2.5003579e+00
  1.0254302e+00
 -1.7225068e+00
 -2.3807988e+00
  5.7465321e-01
  5.9909469e-01
 -1.6742046e+00
  1.6039126e+00
 -1.3632888e+00
 -7.6897275e-01
 -2.9042149e+00
  3.0207846e+00
 -1.8669416e-01
 -1.1066507e+00
  5.6830907e-01
  1.5904552e-01
 -7.5618917e-01
  4.0892782e+00
 -3.7592798e-01
  1.3873223e+00
 -1.0398751e+00
 -1.8786098e-01
 -1.3019644e-01
 -4.5650470e-01
  2.4557756e-01
  4.1896993e-01
 -1.8685249e+00
 -6.0381407e-01
  8.0660987e-01
  7.9430437e-01
 -1.8589364e+00
 -4.7008157e-01
 -8.2917261e-01
  1.7736213e+00
  4.3497261e-01
 -3.5830460e-02
  2.2999334e+00
 -1.3174932e+00
  2.9615572e-01
  1.5328814e+00
  1.2275572e-01
 -7.7282017e-01
 -3.7108377e-01
 -2.2954945e-01
  8.1273603e-01
 -1.6565365e-01
 -2.0283614e-01
  2.6478687e-01
 -1.8912736e+00
  1.0113950e+00
 -5.3730220e-01
  2.3410518e-01
 -6.5265024e-01
 -2.4312201e+00
  3.6544433e-01
  9.3466699e-01
 -7.2091764e-01
 -5.2866864e-01
 -1.3306344e-01
 -5.0760955e-01
 -2.2901137e-01
 -1.3621212e+00
 -2.3748631e+00
  1.4887242e+00
  2.2486691e+00
  1.5985430e+00
 -5.0651169e-01
 -1.7037770e+00
 -4.2273369e-01
  9.1000932e-01
 -6.4369313e-02
 -5.6039667e-01
  4.2664561e-01
 -1.6965742e+00
 -1.2075749e-01
 -1.3133538e-02
 -1.8676640e-02
 -3.8053131e-01
  4.1831132e-02
 -1.0118049e-01
 -6.1550814e-01
 -5.9131343e-02
 -4.9658614e-01
 -2.2198515e-01
 -8.0135679e-01
  2.4900084e-02
  3.1268963e-01
 -7.9905725e-01
 -1.3454243e+00
  1.3189738e+00
  1.0855080e+00
 -2.4638308e-02
  1.5590080e+00
 -1.1400750e+00
  1.6771406e+00
  5.6598938e-01
  1.5414224e+00
  9.7468132e-03
  9.7468132e-03
  9.7468132e-03
  9.7468132e-03
  9.7468132e-03
  9.7468132e-03
  9.7468132e-03
  9.7468132e-03
  9.7468132e-03
  1.3598947e-01
  1.3598947e-01
  1.3598947e-01
  1.3598947e-01
  1.3598947e-01
  1.3598947e-01
  1.3598947e-01
  1.3598947e-01
  1.3598947e-01
  1.4003533e-01
  1.4003533e-01
  1.4003533e-01
  1.4003533e-01
  1.4003533e-01
  1.4003533e-01
  1.4003533e-01
  1.4003533e-01
  1.4003533e-01
  4.8792724e-02
  4.8792724e-02
  4.8792724e-02
  4.8792724e-02
  4.8792724e-02
  4.8792724e-02
  4.8792724e-02
  4.8792724e-02
  4.8792724e-02
  3.2987662e-02
  3.2987662e-02
  3.2987662e-02
  3.2987662e-02
  3.2987662e-02
  3.2987662e-02
  3.2987662e-02
  3.2987662e-02
  3.2987662e-02
  1.3018897e-01
  1.3018897e-01
  1.3018897e-01
  1.3018897e-01
  1.3018897e-01
  1.3018897e-01
  1.3018897e-01
  1.3018897e-01
  1.3018897e-01
  3.9628148e-02
  3.9628148e-02
  3.9628148e-02
  3.9628148e-02
  3.9628148e-02
  3.9628148e-02
  3.9628148e-02
  3.9628148e-02
  3.9628148e-02
